{"learner":{"attributes":{"scikit_learn":"{\"_estimator_type\": \"regressor\"}"},"feature_names":["center_id","meal_id","checkout_price","base_price","emailer_for_promotion","homepage_featured","week","price_diff"],"feature_types":["int","int","float","float","int","int","int","float"],"gradient_booster":{"model":{"gbtree_model_param":{"num_parallel_tree":"1","num_trees":"80"},"iteration_indptr":[0,1,2,3,4,5,6,7,8,9,10,11,12,13,14,15,16,17,18,19,20,21,22,23,24,25,26,27,28,29,30,31,32,33,34,35,36,37,38,39,40,41,42,43,44,45,46,47,48,49,50,51,52,53,54,55,56,57,58,59,60,61,62,63,64,65,66,67,68,69,70,71,72,73,74,75,76,77,78,79,80],"tree_info":[0,0,0,0,0,0,0,0,0,0,0,0,0,0,0,0,0,0,0,0,0,0,0,0,0,0,0,0,0,0,0,0,0,0,0,0,0,0,0,0,0,0,0,0,0,0,0,0,0,0,0,0,0,0,0,0,0,0,0,0,0,0,0,0,0,0,0,0,0,0,0,0,0,0,0,0,0,0,0,0],"trees":[{"base_weights":[1.6403199E-6,-3.2999226E1,4.1855432E2,3.1699162E1,-1.5773695E2,8.513113E2,1.1582734E2,3.495488E2,1.8125483E1,-5.7022057E1,-1.6790343E2,6.3215094E2,3.9279993E3,-3.9449486E1,2.202845E2,9.8899896E2,2.2994165E2,6.823868E1,-5.136673E1,-1.4391298E2,1.4373216E2,-9.0522934E1,-1.7158344E2,2.877047E2,8.062655E2,-4.7500625E0,5.9394995E2,-7.2620664E0,-1.395725E2,1.7804878E2,7.099992E1,-2.7000625E0,1.197599E3,7.422491E2,1.5871754E2,3.760856E1,4.8859338E2,-6.581288E1,1.035282E2,-2.0318869E1,-8.642224E1,-7.900094E0,2.0599886E2,-1.2014405E2,1.4699916E1,-2.0412624E1,-1.5763791E2,4.8837393E2,9.839887E1,9.800544E2,5.0361426E2,6.8726135E1,-7.100115E1,-2.0500627E0,-1.5600104E1,2.6785596E2,7.4848816E1,2.8249939E1,1.355749E2,1.9549938E1,8.593325E1,2.5937977E1,-3.0667815E0,8.9966434E-1,4.0313393E1,2.4248827E0,8.040897E1,-8.0980835E0,7.3406175E-2,2.6379889E1,3.5278797E0,-1.0041294E1,2.1665833E0,4.2266582E1,1.2039887E1,-3.6601002E0,-1.3764824E1,-9.503827E0,-1.78906E1,5.3499374E0,5.428561E1,2.1483229E1,-6.1001E0,1.3102489E2,6.508171E1,7.47999E1,2.573739E1,-1.4626095E0,2.1824905E1,-1.0528679E1,-2.6572502E0,1.26362505E1,3.849989E1,1.1818633E1,-7.8801003E0],"categories":[],"categories_nodes":[],"categories_segments":[],"categories_sizes":[],"default_left":[0,0,0,0,0,0,0,0,0,0,0,0,0,0,0,0,0,0,0,0,0,0,0,0,0,0,0,0,0,0,0,0,0,0,0,0,0,0,0,0,0,0,0,0,0,0,0,0,0,0,0,0,0,0,0,0,0,0,0,0,0,0,0,0,0,0,0,0,0,0,0,0,0,0,0,0,0,0,0,0,0,0,0,0,0,0,0,0,0,0,0,0,0,0,0],"id":0,"left_children":[1,3,5,7,9,11,13,15,17,19,21,23,25,27,29,31,33,35,37,39,41,43,45,47,49,-1,-1,51,53,55,-1,-1,57,59,61,63,65,67,69,-1,71,-1,73,75,-1,-1,77,79,81,83,85,87,89,-1,-1,91,93,-1,-1,-1,-1,-1,-1,-1,-1,-1,-1,-1,-1,-1,-1,-1,-1,-1,-1,-1,-1,-1,-1,-1,-1,-1,-1,-1,-1,-1,-1,-1,-1,-1,-1,-1,-1,-1,-1],"loss_changes":[2.2112964E7,1.1981369E7,1.522924E7,4.2131365E6,5.09551E5,2.9882736E7,1.1440745E6,2.8319E6,3.273551E6,8.579835E5,1.15459E5,2.526794E6,2.4272288E7,9.2444766E4,7.4229025E5,1.303961E6,1.1592944E6,7.0116575E6,8.884419E5,9.830525E4,2.243069E5,1.7948145E5,1.66597E5,5.977381E5,1.084356E6,0E0,0E0,1.1627826E5,1.0495109E4,3.5067525E5,0E0,0E0,3.406175E5,8.80625E4,6.18001E5,5.3301475E6,5.400965E6,3.6444612E5,3.625983E5,0E0,3.0907844E4,0E0,1.7167178E5,2.5671344E4,0E0,0E0,3.970545E5,1.6050075E5,1.9869972E5,1.10409E6,5.897905E5,1.4028589E5,1.7004707E4,0E0,0E0,2.9942462E5,1.4248922E5,0E0,0E0,0E0,0E0,0E0,0E0,0E0,0E0,0E0,0E0,0E0,0E0,0E0,0E0,0E0,0E0,0E0,0E0,0E0,0E0,0E0,0E0,0E0,0E0,0E0,0E0,0E0,0E0,0E0,0E0,0E0,0E0,0E0,0E0,0E0,0E0,0E0,0E0],"parents":[2147483647,0,0,1,1,2,2,3,3,4,4,5,5,6,6,7,7,8,8,9,9,10,10,11,11,12,12,13,13,14,14,15,15,16,16,17,17,18,18,19,19,20,20,21,21,22,22,23,23,24,24,27,27,28,28,29,29,32,32,33,33,34,34,35,35,36,36,37,37,38,38,40,40,42,42,43,43,46,46,47,47,48,48,49,49,50,50,51,51,52,52,55,55,56,56],"right_children":[2,4,6,8,10,12,14,16,18,20,22,24,26,28,30,32,34,36,38,40,42,44,46,48,50,-1,-1,52,54,56,-1,-1,58,60,62,64,66,68,70,-1,72,-1,74,76,-1,-1,78,80,82,84,86,88,90,-1,-1,92,94,-1,-1,-1,-1,-1,-1,-1,-1,-1,-1,-1,-1,-1,-1,-1,-1,-1,-1,-1,-1,-1,-1,-1,-1,-1,-1,-1,-1,-1,-1,-1,-1,-1,-1,-1,-1,-1,-1],"split_conditions":[1E0,3.3662E2,3.211E2,1.4E1,3.8703E2,1.4159E2,1.3483E2,1.5326E2,2.304E3,2.444E3,1.4E1,2.4353E2,6.4E1,1.0476E2,1.43E2,1.311E3,1.198E3,1E0,2.826E3,3.5211E2,3.7E1,6.211E1,1.558E3,7.5E1,2.4353E2,-4.7500625E0,5.9394995E2,3.2501E2,1.971E3,1.971E3,7.099992E1,-2.7000625E0,1.2325E2,1.8333E2,1.06E2,2.29E3,1.885E3,2.9882E2,3.0464E2,-2.0318869E1,1.754E3,-7.900094E0,4.1E1,0E0,1.4699916E1,-2.0412624E1,1.754E3,1.1937E2,2.492E3,6.1E1,3.301E1,3.1819E2,1.3E1,-2.0500627E0,-1.5600104E1,1.571E3,6.8873E2,2.8249939E1,1.355749E2,1.9549938E1,8.593325E1,2.5937977E1,-3.0667815E0,8.9966434E-1,4.0313393E1,2.4248827E0,8.040897E1,-8.0980835E0,7.3406175E-2,2.6379889E1,3.5278797E0,-1.0041294E1,2.1665833E0,4.2266582E1,1.2039887E1,-3.6601002E0,-1.3764824E1,-9.503827E0,-1.78906E1,5.3499374E0,5.428561E1,2.1483229E1,-6.1001E0,1.3102489E2,6.508171E1,7.47999E1,2.573739E1,-1.4626095E0,2.1824905E1,-1.0528679E1,-2.6572502E0,1.26362505E1,3.849989E1,1.1818633E1,-7.8801003E0],"split_indices":[4,2,3,0,3,7,7,2,1,1,0,3,0,7,0,1,1,5,1,3,6,7,1,6,2,0,0,2,1,1,0,0,2,3,6,1,1,2,2,0,1,0,0,7,0,0,1,3,1,6,7,2,6,0,0,1,3,0,0,0,0,0,0,0,0,0,0,0,0,0,0,0,0,0,0,0,0,0,0,0,0,0,0,0,0,0,0,0,0,0,0,0,0,0,0],"split_type":[0,0,0,0,0,0,0,0,0,0,0,0,0,0,0,0,0,0,0,0,0,0,0,0,0,0,0,0,0,0,0,0,0,0,0,0,0,0,0,0,0,0,0,0,0,0,0,0,0,0,0,0,0,0,0,0,0,0,0,0,0,0,0,0,0,0,0,0,0,0,0,0,0,0,0,0,0,0,0,0,0,0,0,0,0,0,0,0,0,0,0,0,0,0,0],"sum_hessian":[1.599E3,1.483E3,1.16E2,9.77E2,5.06E2,4.7E1,6.9E1,3.9E1,9.38E2,4.7E1,4.59E2,4.5E1,2E0,2.8E1,4.1E1,5E0,3.4E1,5.45E2,3.93E2,3.3E1,1.4E1,2.2E1,4.37E2,1.6E1,2.9E1,1E0,1E0,2.2E1,6E0,3.9E1,2E0,1E0,4E0,3E0,3.1E1,5.09E2,3.6E1,3.6E2,3.3E1,1.5E1,1.8E1,3E0,1.1E1,2E1,2E0,1.27E2,3.1E2,7E0,9E0,1.7E1,1.2E1,1E1,1.2E1,1E0,5E0,2E1,1.9E1,1E0,3E0,1E0,2E0,2E1,1.1E1,4.73E2,3.6E1,1.5E1,2.1E1,2.93E2,6.7E1,9E0,2.4E1,1.6E1,2E0,2E0,9E0,4E0,1.6E1,8E1,2.3E2,1E0,6E0,5E0,4E0,7E0,1E1,5E0,7E0,7E0,3E0,6E0,6E0,1E1,1E1,1.5E1,4E0],"tree_param":{"num_deleted":"0","num_feature":"8","num_nodes":"95","size_leaf_vector":"1"}},{"base_weights":[9.247225E-1,-2.942768E1,3.858994E2,2.8974451E1,-1.4202701E2,7.861981E2,1.0589604E2,3.2183087E2,1.6468348E1,-5.0940422E1,-1.5122293E2,5.770155E2,3.731599E3,-3.58657E1,2.0125781E2,9.169532E2,2.1061475E2,6.164201E1,-4.6174515E1,-1.303509E2,1.3245271E2,-1.5401317E2,-6.945329E1,4.119565E2,9.248676E2,-4.5125594E0,5.6425244E2,-6.2238398E0,-1.281367E2,6.0296505E1,1.5489662E2,-2.5650597E0,1.110604E3,6.9439496E2,1.4356052E2,3.3928516E1,4.419728E2,-5.9253822E1,9.405501E1,-1.6084334E2,-4.1084755E1,-7.3075867E0,1.8992451E2,-1.7916556E2,-1.4291371E2,1.3719922E1,-1.0615358E2,8.27112E1,4.974183E2,1.0969508E3,3.9572772E2,6.370464E1,-6.491534E1,-1.9475594E0,-1.43000965E1,5.3273487E1,2.5906448E2,2.6837439E1,1.2540679E2,1.8572441E1,8.020437E1,2.3467693E1,-2.785659E0,8.098883E-1,3.639101E1,2.1975486E0,7.2733574E1,-7.2910304E0,6.617459E-2,2.40057E1,3.189202E0,-1.8413975E1,-1.0748476E1,-6.4631076E0,8.541608E0,3.9448814E1,1.0956298E1,-5.923305E0,-1.8540792E1,-8.678171E0,-1.6117546E1,-1.1713043E1,-2.3202693E0,2.162786E1,-1.0492587E1,-1.8675171E0,5.4120422E1,1.19178406E2,4.7841175E1,4.943443E1,6.306763E-2,-1.3346306E0,2.0188038E1,-9.62622E0,-2.429485E0,1.5108312E1,4.077425E-1,8.724515E0,5.4114834E1],"categories":[],"categories_nodes":[],"categories_segments":[],"categories_sizes":[],"default_left":[0,0,0,0,0,0,0,0,0,0,0,0,0,0,0,0,0,0,0,0,0,0,0,0,0,0,0,0,0,0,0,0,0,0,0,0,0,0,0,0,0,0,0,0,0,0,0,0,0,0,0,0,0,0,0,0,0,0,0,0,0,0,0,0,0,0,0,0,0,0,0,0,0,0,0,0,0,0,0,0,0,0,0,0,0,0,0,0,0,0,0,0,0,0,0,0,0,0,0],"id":1,"left_children":[1,3,5,7,9,11,13,15,17,19,21,23,25,27,29,31,33,35,37,39,41,43,45,47,49,-1,-1,51,53,-1,55,-1,57,59,61,63,65,67,69,71,73,-1,75,77,79,-1,81,83,85,87,89,91,93,-1,-1,95,97,-1,-1,-1,-1,-1,-1,-1,-1,-1,-1,-1,-1,-1,-1,-1,-1,-1,-1,-1,-1,-1,-1,-1,-1,-1,-1,-1,-1,-1,-1,-1,-1,-1,-1,-1,-1,-1,-1,-1,-1,-1,-1],"loss_changes":[1.8707206E7,9.762958E6,1.303069E7,3.576618E6,4.16973E5,2.7420896E7,9.5352394E5,2.454364E6,2.6600358E6,7.163056E5,9.4255E4,2.260136E6,2.1905736E7,7.851994E4,6.887951E5,1.1237045E6,1.035695E6,5.7400055E6,7.2821056E5,8.593775E4,1.9106034E5,9.835E4,1.4349569E5,8.87408E5,8.40691E5,0E0,0E0,9.853217E4,8.521133E3,0E0,3.9904744E5,0E0,2.675875E5,7.0071875E4,5.0634244E5,4.3439375E6,4.4185285E6,2.9543112E5,3.009253E5,1.12844375E4,3.5306824E4,0E0,1.5404722E5,8.78405E4,3.068595E5,0E0,1.0940359E4,2.2319081E5,5.976455E5,1.6418E4,1.9450388E5,1.19806625E5,1.4214547E4,0E0,0E0,1.0043277E5,8.736691E5,0E0,0E0,0E0,0E0,0E0,0E0,0E0,0E0,0E0,0E0,0E0,0E0,0E0,0E0,0E0,0E0,0E0,0E0,0E0,0E0,0E0,0E0,0E0,0E0,0E0,0E0,0E0,0E0,0E0,0E0,0E0,0E0,0E0,0E0,0E0,0E0,0E0,0E0,0E0,0E0,0E0,0E0],"parents":[2147483647,0,0,1,1,2,2,3,3,4,4,5,5,6,6,7,7,8,8,9,9,10,10,11,11,12,12,13,13,14,14,15,15,16,16,17,17,18,18,19,19,20,20,21,21,22,22,23,23,24,24,27,27,28,28,30,30,32,32,33,33,34,34,35,35,36,36,37,37,38,38,39,39,40,40,42,42,43,43,44,44,46,46,47,47,48,48,49,49,50,50,51,51,52,52,55,55,56,56],"right_children":[2,4,6,8,10,12,14,16,18,20,22,24,26,28,30,32,34,36,38,40,42,44,46,48,50,-1,-1,52,54,-1,56,-1,58,60,62,64,66,68,70,72,74,-1,76,78,80,-1,82,84,86,88,90,92,94,-1,-1,96,98,-1,-1,-1,-1,-1,-1,-1,-1,-1,-1,-1,-1,-1,-1,-1,-1,-1,-1,-1,-1,-1,-1,-1,-1,-1,-1,-1,-1,-1,-1,-1,-1,-1,-1,-1,-1,-1,-1,-1,-1,-1,-1],"split_conditions":[1E0,3.3662E2,3.211E2,1.4E1,3.8703E2,1.4159E2,1.3483E2,1.5326E2,2.304E3,2.444E3,1.3483E2,2.9591E2,6.4E1,1.0476E2,2.8815E2,1.311E3,1.198E3,1E0,2.826E3,3.6963E2,3.7E1,1.558E3,1.4E1,9.9E1,3.1137E2,-4.5125594E0,5.6425244E2,3.2501E2,1.971E3,6.0296505E1,6.7803E2,-2.5650597E0,1.2325E2,1.8333E2,1.06E2,2.29E3,1.885E3,2.9882E2,3.0464E2,3.5211E2,1.754E3,-7.3075867E0,4.1E1,1.4E1,1.754E3,1.3719922E1,1E0,2.104E3,1.543E3,2.304E3,1.993E3,3.1819E2,1.3E1,-1.9475594E0,-1.43000965E1,6.2953E2,8.6E1,2.6837439E1,1.2540679E2,1.8572441E1,8.020437E1,2.3467693E1,-2.785659E0,8.098883E-1,3.639101E1,2.1975486E0,7.2733574E1,-7.2910304E0,6.617459E-2,2.40057E1,3.189202E0,-1.8413975E1,-1.0748476E1,-6.4631076E0,8.541608E0,3.9448814E1,1.0956298E1,-5.923305E0,-1.8540792E1,-8.678171E0,-1.6117546E1,-1.1713043E1,-2.3202693E0,2.162786E1,-1.0492587E1,-1.8675171E0,5.4120422E1,1.19178406E2,4.7841175E1,4.943443E1,6.306763E-2,-1.3346306E0,2.0188038E1,-9.62622E0,-2.429485E0,1.5108312E1,4.077425E-1,8.724515E0,5.4114834E1],"split_indices":[4,2,3,0,3,7,7,2,1,1,7,3,0,7,2,1,1,5,1,2,6,1,0,2,3,0,0,2,1,0,3,0,2,3,6,1,1,2,2,3,1,0,0,0,1,0,5,1,1,1,1,2,6,0,0,3,0,0,0,0,0,0,0,0,0,0,0,0,0,0,0,0,0,0,0,0,0,0,0,0,0,0,0,0,0,0,0,0,0,0,0,0,0,0,0,0,0,0,0],"split_type":[0,0,0,0,0,0,0,0,0,0,0,0,0,0,0,0,0,0,0,0,0,0,0,0,0,0,0,0,0,0,0,0,0,0,0,0,0,0,0,0,0,0,0,0,0,0,0,0,0,0,0,0,0,0,0,0,0,0,0,0,0,0,0,0,0,0,0,0,0,0,0,0,0,0,0,0,0,0,0,0,0,0,0,0,0,0,0,0,0,0,0,0,0,0,0,0,0,0,0],"sum_hessian":[1.599E3,1.483E3,1.16E2,9.77E2,5.06E2,4.7E1,6.9E1,3.9E1,9.38E2,4.7E1,4.59E2,4.5E1,2E0,2.8E1,4.1E1,5E0,3.4E1,5.45E2,3.93E2,3.3E1,1.4E1,4.43E2,1.6E1,3.2E1,1.3E1,1E0,1E0,2.2E1,6E0,3E0,3.8E1,1E0,4E0,3E0,3.1E1,5.09E2,3.6E1,3.6E2,3.3E1,2.4E1,9E0,3E0,1.1E1,1.31E2,3.12E2,2E0,1.4E1,7E0,2.5E1,9E0,4E0,1E1,1.2E1,1E0,5E0,2E1,1.8E1,1E0,3E0,1E0,2E0,2E1,1.1E1,4.73E2,3.6E1,1.5E1,2.1E1,2.93E2,6.7E1,9E0,2.4E1,1.5E1,9E0,8E0,1E0,2E0,9E0,7E0,1.24E2,7.8E1,2.34E2,1.2E1,2E0,4E0,3E0,2E0,2.3E1,7E0,2E0,3E0,1E0,7E0,3E0,6E0,6E0,6E0,1.4E1,1.2E1,6E0],"tree_param":{"num_deleted":"0","num_feature":"8","num_nodes":"99","size_leaf_vector":"1"}},{"base_weights":[1.6675843E0,-2.6237144E1,3.5559024E2,2.6985132E1,-1.27028206E2,7.250709E2,9.715218E1,2.9637625E2,1.5406752E1,-4.647417E1,-1.362084E2,5.253988E2,3.5450195E3,-3.2604992E1,1.8443327E2,6.7315845E2,1.4834355E2,5.61151E1,-4.16664E1,-1.23296486E2,1.0152991E2,-1.5358862E2,-1.23957756E2,3.7268173E2,8.478464E2,-4.2869315E0,5.3603986E2,-5.3059053E0,-1.17644135E2,1.4681528E2,6.245288E1,7.63015E2,-1.1270347E1,2.8638525E2,-8.790507E0,3.1021818E1,3.9980066E2,-5.370932E1,8.987868E1,-1.5077737E2,-3.676843E1,3.7764168E1,6.521027E1,-6.0311947E1,-1.5967487E2,9.918448E0,-1.4288602E2,5.064632E2,1.7837978E2,1.0039577E2,3.6605444E2,5.9048115E1,-5.9351162E1,-1.8501816E0,-1.3108421E1,2.234072E2,5.9053E1,4.133646E1,1.0299926E2,4.4147263E1,-4.5672436E0,1.504256E1,-3.0907772E0,7.6860654E-1,3.285026E1,1.9915293E0,6.5790825E1,-4.5197086E0,-1.3874926E1,2.9889053E1,5.074289E0,-1.7182655E1,-9.781113E0,-5.8886094E0,8.114528E0,1.076913E1,-1.1039615E1,2.3852835E0,-1.1589654E1,-1.6400866E1,-1.1000358E1,7.13466E0,-4.55656E0,-1.5828929E1,-9.378131E0,1.34409075E1,6.2973904E1,2.1524422E0,3.5456814E1,4.572685E1,5.9913635E-2,-2.5746295E0,1.6595068E1,-8.801116E0,-2.2212434E0,9.906065E0,3.27444E1,9.865267E0,-7.9476542E0],"categories":[],"categories_nodes":[],"categories_segments":[],"categories_sizes":[],"default_left":[0,0,0,0,0,0,0,0,0,0,0,0,0,0,0,0,0,0,0,0,0,0,0,0,0,0,0,0,0,0,0,0,0,0,0,0,0,0,0,0,0,0,0,0,0,0,0,0,0,0,0,0,0,0,0,0,0,0,0,0,0,0,0,0,0,0,0,0,0,0,0,0,0,0,0,0,0,0,0,0,0,0,0,0,0,0,0,0,0,0,0,0,0,0,0,0,0,0,0],"id":2,"left_children":[1,3,5,7,9,11,13,15,17,19,21,23,25,27,29,31,33,35,37,39,41,43,45,47,49,-1,-1,51,53,55,-1,57,-1,59,61,63,65,67,69,71,73,-1,75,77,79,81,83,85,87,-1,89,91,93,-1,-1,95,97,-1,-1,-1,-1,-1,-1,-1,-1,-1,-1,-1,-1,-1,-1,-1,-1,-1,-1,-1,-1,-1,-1,-1,-1,-1,-1,-1,-1,-1,-1,-1,-1,-1,-1,-1,-1,-1,-1,-1,-1,-1,-1],"loss_changes":[1.5811114E7,7.9640935E6,1.1101638E7,3.0272115E6,3.730345E5,2.5164572E7,7.987879E5,2.1311848E6,2.1700272E6,6.264991E5,7.8904E4,1.949214E6,1.9769932E7,6.669902E4,6.03641E5,8.62757E5,6.532491E5,4.687786E6,6.210759E5,8.005944E4,1.6591116E5,9.5963E4,6.98279E5,7.67459E5,6.85481E5,0E0,0E0,8.349926E4,6.9020703E3,2.5568238E5,0E0,5.077255E5,0E0,8.4413025E5,5.7470695E4,3.5309215E6,3.614795E6,2.5215406E5,2.5476831E5,1.3295625E4,3.0858088E4,0E0,1.4616764E5,6.3581914E4,1.9415E4,1.2254082E5,1.674415E5,7.867975E5,4.0690938E5,0E0,1.6639931E5,1.03984734E5,1.1882203E4,0E0,0E0,2.3923206E5,1.1755503E5,0E0,0E0,0E0,0E0,0E0,0E0,0E0,0E0,0E0,0E0,0E0,0E0,0E0,0E0,0E0,0E0,0E0,0E0,0E0,0E0,0E0,0E0,0E0,0E0,0E0,0E0,0E0,0E0,0E0,0E0,0E0,0E0,0E0,0E0,0E0,0E0,0E0,0E0,0E0,0E0,0E0,0E0],"parents":[2147483647,0,0,1,1,2,2,3,3,4,4,5,5,6,6,7,7,8,8,9,9,10,10,11,11,12,12,13,13,14,14,15,15,16,16,17,17,18,18,19,19,20,20,21,21,22,22,23,23,24,24,27,27,28,28,29,29,31,31,33,33,34,34,35,35,36,36,37,37,38,38,39,39,40,40,42,42,43,43,44,44,45,45,46,46,47,47,48,48,50,50,51,51,52,52,55,55,56,56],"right_children":[2,4,6,8,10,12,14,16,18,20,22,24,26,28,30,32,34,36,38,40,42,44,46,48,50,-1,-1,52,54,56,-1,58,-1,60,62,64,66,68,70,72,74,-1,76,78,80,82,84,86,88,-1,90,92,94,-1,-1,96,98,-1,-1,-1,-1,-1,-1,-1,-1,-1,-1,-1,-1,-1,-1,-1,-1,-1,-1,-1,-1,-1,-1,-1,-1,-1,-1,-1,-1,-1,-1,-1,-1,-1,-1,-1,-1,-1,-1,-1,-1,-1,-1],"split_conditions":[1E0,3.3471E2,3.211E2,1.4E1,3.8703E2,1.4159E2,1.3483E2,1.8436E2,2.304E3,2.444E3,1.727E3,2.9591E2,6.4E1,1.0476E2,1.43E2,2.104E3,9.9E1,1E0,2.826E3,3.6963E2,1.1E1,1.4E1,1.754E3,7.7E1,3.1137E2,-4.2869315E0,5.3603986E2,3.2501E2,1.971E3,1.971E3,6.245288E1,1.847E3,-1.1270347E1,2.8033E2,1.6593E2,2.29E3,1.885E3,2.76E3,2.4838E2,3.5211E2,1.754E3,3.7764168E1,1.88E0,9.5E1,9.315E1,8.1E1,6.3923E2,3E1,1.9497E2,1.0039577E2,1.993E3,3.0846E2,1.3E1,-1.8501816E0,-1.3108421E1,1.571E3,6.8873E2,4.133646E1,1.0299926E2,4.4147263E1,-4.5672436E0,1.504256E1,-3.0907772E0,7.6860654E-1,3.285026E1,1.9915293E0,6.5790825E1,-4.5197086E0,-1.3874926E1,2.9889053E1,5.074289E0,-1.7182655E1,-9.781113E0,-5.8886094E0,8.114528E0,1.076913E1,-1.1039615E1,2.3852835E0,-1.1589654E1,-1.6400866E1,-1.1000358E1,7.13466E0,-4.55656E0,-1.5828929E1,-9.378131E0,1.34409075E1,6.2973904E1,2.1524422E0,3.5456814E1,4.572685E1,5.9913635E-2,-2.5746295E0,1.6595068E1,-8.801116E0,-2.2212434E0,9.906065E0,3.27444E1,9.865267E0,-7.9476542E0],"split_indices":[4,2,3,0,3,7,7,3,1,1,1,3,0,7,0,1,6,5,1,2,0,0,1,6,3,0,0,2,1,1,0,1,0,2,2,1,1,1,2,3,1,0,7,6,7,0,3,6,2,0,1,2,6,0,0,1,3,0,0,0,0,0,0,0,0,0,0,0,0,0,0,0,0,0,0,0,0,0,0,0,0,0,0,0,0,0,0,0,0,0,0,0,0,0,0,0,0,0,0],"split_type":[0,0,0,0,0,0,0,0,0,0,0,0,0,0,0,0,0,0,0,0,0,0,0,0,0,0,0,0,0,0,0,0,0,0,0,0,0,0,0,0,0,0,0,0,0,0,0,0,0,0,0,0,0,0,0,0,0,0,0,0,0,0,0,0,0,0,0,0,0,0,0,0,0,0,0,0,0,0,0,0,0,0,0,0,0,0,0,0,0,0,0,0,0,0,0,0,0,0,0],"sum_hessian":[1.599E3,1.483E3,1.16E2,9.71E2,5.12E2,4.7E1,6.9E1,3.9E1,9.32E2,5.3E1,4.59E2,4.5E1,2E0,2.8E1,4.1E1,1E1,2.9E1,5.44E2,3.88E2,3.5E1,1.8E1,1.85E2,2.74E2,3.2E1,1.3E1,1E0,1E0,2.2E1,6E0,3.9E1,2E0,9E0,1E0,1.5E1,1.4E1,5.08E2,3.6E1,3.56E2,3.2E1,2.6E1,9E0,1E0,1.7E1,1.2E1,1.73E2,3.4E1,2.4E2,1.8E1,1.4E1,9E0,4E0,1E1,1.2E1,1E0,5E0,2E1,1.9E1,5E0,4E0,1E1,5E0,1E0,1.3E1,4.72E2,3.6E1,1.5E1,2.1E1,3.25E2,3.1E1,4E0,2.8E1,1.7E1,9E0,8E0,1E0,1.4E1,3E0,5E0,7E0,1.57E2,1.6E1,1.6E1,1.8E1,1.81E2,5.9E1,5E0,1.3E1,8E0,6E0,3E0,1E0,6E0,4E0,6E0,6E0,1E1,1E1,1.5E1,4E0],"tree_param":{"num_deleted":"0","num_feature":"8","num_nodes":"99","size_leaf_vector":"1"}},{"base_weights":[2.2152684E0,-2.3440865E1,3.2761258E2,2.4597902E1,-1.1441599E2,6.69063E2,8.879497E1,2.7135355E2,1.3992517E1,-4.159053E1,-1.2271633E2,4.785156E2,3.3677683E3,1.3894036E0,2.0528941E2,6.1793945E2,1.3522691E2,1.0658288E1,6.3069385E2,-8.7404884E1,1.6873311E2,-1.2735024E2,-8.390892E1,3.3886884E2,7.7350336E2,-4.0725856E0,5.0923785E2,5.4864544E1,-6.9987976E1,7.812602E1,4.178329E2,7.011471E2,-1.0706828E1,6.77857E1,9.314116E1,-2.597541E0,1.6163263E2,1.3072603E2,1.347372E2,-1.19696846E2,1.2904639E0,3.5875957E1,1.07756874E2,-1.5310178E2,-1.1949964E2,1.237992E1,-9.915226E1,4.201225E2,7.551205E1,9.136015E2,3.3860638E2,9.775172E1,-2.747538E1,-9.1897545E1,7.019239E1,-4.8426517E1,1.4999481E2,-4.504645E0,4.686255E2,2.56498E1,8.550684E1,-7.5565463E-1,2.0157133E1,1.0970624E1,-1.385345E0,3.6165257E1,-3.2274296E0,3.0826033E1,-2.5857275E0,-1.5686394E1,-7.5488763E0,4.9342093E0,-4.6945515E0,-3.1624365E0,2.2558676E1,-7.433861E0,-1.5773247E1,-8.925914E0,-1.3484393E1,-1.1549787E1,-9.437924E-2,1.3435376E1,5.4669872E1,1.7904858E1,-9.867076E0,9.996567E1,3.7958714E1,8.141282E0,4.8293114E1,-1.0220735E1,1.3361783E1,-6.518593E0,2.244217E-1,-4.5391374E0,-1.327298E1,2.2103271E0,8.318531E0,6.041841E0,-9.47779E0,2.8744535E1,-8.883567E-1,8.170792E-1,5.1887928E1],"categories":[],"categories_nodes":[],"categories_segments":[],"categories_sizes":[],"default_left":[0,0,0,0,0,0,0,0,0,0,0,0,0,0,0,0,0,0,0,0,0,0,0,0,0,0,0,0,0,0,0,0,0,0,0,0,0,0,0,0,0,0,0,0,0,0,0,0,0,0,0,0,0,0,0,0,0,0,0,0,0,0,0,0,0,0,0,0,0,0,0,0,0,0,0,0,0,0,0,0,0,0,0,0,0,0,0,0,0,0,0,0,0,0,0,0,0,0,0,0,0,0,0],"id":3,"left_children":[1,3,5,7,9,11,13,15,17,19,21,23,25,27,29,31,33,35,37,39,41,43,45,47,49,-1,-1,51,53,55,57,59,-1,-1,61,63,65,-1,67,69,71,-1,73,75,77,-1,79,81,83,85,87,89,91,93,95,97,99,-1,101,-1,-1,-1,-1,-1,-1,-1,-1,-1,-1,-1,-1,-1,-1,-1,-1,-1,-1,-1,-1,-1,-1,-1,-1,-1,-1,-1,-1,-1,-1,-1,-1,-1,-1,-1,-1,-1,-1,-1,-1,-1,-1,-1,-1],"loss_changes":[1.3365178E7,6.4883885E6,9.481282E6,2.539867E6,3.049925E5,2.307157E7,7.124731E5,1.8036208E6,1.9117348E6,5.3508356E5,7.2036E4,1.632812E6,1.784236E7,1.6033339E5,7.781889E5,7.38658E5,6.219734E5,1.8596182E6,1.5016015E6,1.2904106E5,7.721219E4,6.439E4,1.7691553E5,6.7443275E5,5.43644E5,0E0,0E0,8.74376E4,6.1733742E4,1.8916728E5,2.7972912E5,4.650865E5,0E0,0E0,3.1816456E5,1.0823091E6,2.920566E6,0E0,1.1943819E5,4.2380375E4,3.2448012E4,0E0,1.549435E5,2.182925E4,1.35522E5,0E0,7.854953E4,8.308375E5,1.799754E5,8.009E4,1.4628019E5,1.2840475E5,1.0232971E4,2.4358438E4,3.578711E1,4.6087227E4,2.864465E5,0E0,2.27156E5,0E0,0E0,0E0,0E0,0E0,0E0,0E0,0E0,0E0,0E0,0E0,0E0,0E0,0E0,0E0,0E0,0E0,0E0,0E0,0E0,0E0,0E0,0E0,0E0,0E0,0E0,0E0,0E0,0E0,0E0,0E0,0E0,0E0,0E0,0E0,0E0,0E0,0E0,0E0,0E0,0E0,0E0,0E0,0E0],"parents":[2147483647,0,0,1,1,2,2,3,3,4,4,5,5,6,6,7,7,8,8,9,9,10,10,11,11,12,12,13,13,14,14,15,15,16,16,17,17,18,18,19,19,20,20,21,21,22,22,23,23,24,24,27,27,28,28,29,29,30,30,31,31,34,34,35,35,36,36,38,38,39,39,40,40,42,42,43,43,44,44,46,46,47,47,48,48,49,49,50,50,51,51,52,52,53,53,54,54,55,55,56,56,58,58],"right_children":[2,4,6,8,10,12,14,16,18,20,22,24,26,28,30,32,34,36,38,40,42,44,46,48,50,-1,-1,52,54,56,58,60,-1,-1,62,64,66,-1,68,70,72,-1,74,76,78,-1,80,82,84,86,88,90,92,94,96,98,100,-1,102,-1,-1,-1,-1,-1,-1,-1,-1,-1,-1,-1,-1,-1,-1,-1,-1,-1,-1,-1,-1,-1,-1,-1,-1,-1,-1,-1,-1,-1,-1,-1,-1,-1,-1,-1,-1,-1,-1,-1,-1,-1,-1,-1,-1],"split_conditions":[1E0,3.3471E2,3.211E2,1.4E1,3.8703E2,1.4159E2,1.746E2,1.8436E2,1.92E2,2.577E3,8.442E1,2.9591E2,6.4E1,1.01E2,9.4E1,2.104E3,1.198E3,1E0,6E0,2.322E3,1.1E1,1.525E3,2E1,2.492E3,3.1137E2,-4.0725856E0,5.0923785E2,4.8603E2,2.631E3,1E0,1.1E1,1.311E3,-1.0706828E1,6.77857E1,2.29E3,1.198E3,2.304E3,1.3072603E2,1.01E2,3.5599E2,3.405E2,3.5875957E1,7.7E1,1.4E1,1.754E3,1.237992E1,1.26E2,1.885E3,6.5E1,2.304E3,3.2013E2,2.4353E2,1E0,1.971E3,1.09E2,5.3E1,1.971E3,-4.504645E0,1.571E3,2.56498E1,8.550684E1,-7.5565463E-1,2.0157133E1,1.0970624E1,-1.385345E0,3.6165257E1,-3.2274296E0,3.0826033E1,-2.5857275E0,-1.5686394E1,-7.5488763E0,4.9342093E0,-4.6945515E0,-3.1624365E0,2.2558676E1,-7.433861E0,-1.5773247E1,-8.925914E0,-1.3484393E1,-1.1549787E1,-9.437924E-2,1.3435376E1,5.4669872E1,1.7904858E1,-9.867076E0,9.996567E1,3.7958714E1,8.141282E0,4.8293114E1,-1.0220735E1,1.3361783E1,-6.518593E0,2.244217E-1,-4.5391374E0,-1.327298E1,2.2103271E0,8.318531E0,6.041841E0,-9.47779E0,2.8744535E1,-8.883567E-1,8.170792E-1,5.1887928E1],"split_indices":[4,2,3,0,3,7,7,3,7,1,7,3,0,0,0,1,1,5,6,1,0,1,0,1,3,0,0,2,1,5,6,1,0,0,1,1,1,0,0,2,2,0,0,0,1,0,6,1,0,1,3,2,5,1,0,6,1,0,1,0,0,0,0,0,0,0,0,0,0,0,0,0,0,0,0,0,0,0,0,0,0,0,0,0,0,0,0,0,0,0,0,0,0,0,0,0,0,0,0,0,0,0,0],"split_type":[0,0,0,0,0,0,0,0,0,0,0,0,0,0,0,0,0,0,0,0,0,0,0,0,0,0,0,0,0,0,0,0,0,0,0,0,0,0,0,0,0,0,0,0,0,0,0,0,0,0,0,0,0,0,0,0,0,0,0,0,0,0,0,0,0,0,0,0,0,0,0,0,0,0,0,0,0,0,0,0,0,0,0,0,0,0,0,0,0,0,0,0,0,0,0,0,0,0,0,0,0,0,0],"sum_hessian":[1.599E3,1.483E3,1.16E2,9.71E2,5.12E2,4.7E1,6.9E1,3.9E1,9.32E2,5.3E1,4.59E2,4.5E1,2E0,4E1,2.9E1,1E1,2.9E1,9.28E2,4E0,4.4E1,9E0,4.08E2,5.1E1,3.2E1,1.3E1,1E0,1E0,2.3E1,1.7E1,1.9E1,1E1,9E0,1E0,1E0,2.8E1,8.54E2,7.4E1,1E0,3E0,3.2E1,1.2E1,1E0,8E0,9.1E1,3.17E2,3E0,4.8E1,2.4E1,8E0,9E0,4E0,1.5E1,8E0,1.5E1,2E0,7E0,1.2E1,1E0,9E0,3E0,6E0,1.5E1,1.3E1,7.7E1,7.77E2,3.6E1,3.8E1,1E0,2E0,1.6E1,1.6E1,6E0,6E0,4E0,4E0,6E0,8.5E1,1.09E2,2.08E2,4.1E1,7E0,8E0,1.6E1,5E0,3E0,7E0,2E0,2E0,2E0,2E0,1.3E1,3E0,5E0,8E0,7E0,1E0,1E0,2E0,5E0,6E0,6E0,1E0,8E0],"tree_param":{"num_deleted":"0","num_feature":"8","num_nodes":"103","size_leaf_vector":"1"}},{"base_weights":[2.752725E0,-2.0843056E1,3.0201245E2,2.2538448E1,-1.0299896E2,6.183164E2,8.080382E1,2.4890912E2,1.2809224E1,-4.4648903E1,-1.11664444E2,4.3654453E2,3.19938E3,9.959155E-1,1.8718115E2,5.653386E2,1.24588E2,9.638232E0,5.994177E2,-7.813551E1,1.5738702E2,-1.1397833E2,-3.758004E1,1.811274E2,5.6672943E2,-3.868956E0,4.8377594E2,4.9246708E1,-6.3393803E1,7.153443E1,3.8043146E2,6.4221545E2,-1.0171488E1,2.4606374E2,-3.1817392E1,-2.3265755E0,1.4590854E2,1.2418972E2,1.2832355E2,-1.078778E2,1.6911639E0,3.4082165E1,9.913632E1,-1.2926216E2,-1.03567986E2,1.2213029E1,-7.15455E1,3.3395212E2,4.075488E1,7.1089557E2,3.2352023E2,8.817286E1,-2.5427198E1,-8.868779E1,4.73071E1,1.5862709E2,-3.1420935E1,-4.2794127E0,4.2703342E2,3.377027E1,8.791876E1,3.7095135E1,-4.472217E0,-1.0995498E1,-5.11236E-2,9.887627E0,-1.2469887E0,3.2646473E1,-2.912962E0,2.9284729E1,-2.413346E0,-1.1961839E1,-4.156044E0,-3.9183242E0,4.2377663E0,-2.909441E0,2.075398E1,6.1061397E0,-1.3074089E1,1.2783493E0,-1.198116E1,-9.209833E-1,-9.822693E0,5.955078E-1,3.799581E1,1.0680526E1,-8.5022E0,9.696168E1,4.5810783E1,5.3774586E1,1.2241101E1,-3.072062E0,1.45008135E1,-4.806255E0,1.488263E0,-4.1356587E0,-1.3687251E1,-5.409958E-1,6.6682773E0,-3.429522E0,2.7376774E1,5.1084137E-1,-6.8971972E0,7.7622527E-1,4.727566E1],"categories":[],"categories_nodes":[],"categories_segments":[],"categories_sizes":[],"default_left":[0,0,0,0,0,0,0,0,0,0,0,0,0,0,0,0,0,0,0,0,0,0,0,0,0,0,0,0,0,0,0,0,0,0,0,0,0,0,0,0,0,0,0,0,0,0,0,0,0,0,0,0,0,0,0,0,0,0,0,0,0,0,0,0,0,0,0,0,0,0,0,0,0,0,0,0,0,0,0,0,0,0,0,0,0,0,0,0,0,0,0,0,0,0,0,0,0,0,0,0,0,0,0,0,0],"id":4,"left_children":[1,3,5,7,9,11,13,15,17,19,21,23,25,27,29,31,33,35,37,39,41,43,45,47,49,-1,-1,51,53,55,57,59,-1,61,63,65,67,-1,69,71,73,-1,75,77,79,-1,81,83,85,87,89,91,93,95,97,99,101,-1,103,-1,-1,-1,-1,-1,-1,-1,-1,-1,-1,-1,-1,-1,-1,-1,-1,-1,-1,-1,-1,-1,-1,-1,-1,-1,-1,-1,-1,-1,-1,-1,-1,-1,-1,-1,-1,-1,-1,-1,-1,-1,-1,-1,-1,-1,-1],"loss_changes":[1.1304322E7,5.2913665E6,8.136431E6,2.137555E6,2.54403E5,2.1123238E7,5.940962E5,1.50312E6,1.7297249E6,4.7235147E5,7.21715E4,1.426917E6,1.6102726E7,1.3050299E5,6.432489E5,6.294135E5,5.778129E5,1.5150256E6,1.3539772E6,1.4026188E5,7.306416E4,5.5348E4,9.010739E4,3.5108044E5,8.21886E5,0E0,0E0,7.2004414E4,5.4596766E4,1.8431733E5,2.3522912E5,4.2470625E5,0E0,6.339543E5,3.4190406E4,8.7891775E5,2.3798265E6,0E0,1.0739861E5,2.8508625E4,2.9932113E4,0E0,1.3114416E5,5.610925E4,4.9670325E5,0E0,2.0717E4,1.1845594E5,9.21569E4,7.33039E5,4.9424962E5,1.12572234E5,8.927143E3,2.8549047E4,4.446463E3,2.5373412E5,1.4069484E4,0E0,1.8803462E5,0E0,0E0,0E0,0E0,0E0,0E0,0E0,0E0,0E0,0E0,0E0,0E0,0E0,0E0,0E0,0E0,0E0,0E0,0E0,0E0,0E0,0E0,0E0,0E0,0E0,0E0,0E0,0E0,0E0,0E0,0E0,0E0,0E0,0E0,0E0,0E0,0E0,0E0,0E0,0E0,0E0,0E0,0E0,0E0,0E0,0E0],"parents":[2147483647,0,0,1,1,2,2,3,3,4,4,5,5,6,6,7,7,8,8,9,9,10,10,11,11,12,12,13,13,14,14,15,15,16,16,17,17,18,18,19,19,20,20,21,21,22,22,23,23,24,24,27,27,28,28,29,29,30,30,31,31,33,33,34,34,35,35,36,36,38,38,39,39,40,40,42,42,43,43,44,44,46,46,47,47,48,48,49,49,50,50,51,51,52,52,53,53,54,54,55,55,56,56,58,58],"right_children":[2,4,6,8,10,12,14,16,18,20,22,24,26,28,30,32,34,36,38,40,42,44,46,48,50,-1,-1,52,54,56,58,60,-1,62,64,66,68,-1,70,72,74,-1,76,78,80,-1,82,84,86,88,90,92,94,96,98,100,102,-1,104,-1,-1,-1,-1,-1,-1,-1,-1,-1,-1,-1,-1,-1,-1,-1,-1,-1,-1,-1,-1,-1,-1,-1,-1,-1,-1,-1,-1,-1,-1,-1,-1,-1,-1,-1,-1,-1,-1,-1,-1,-1,-1,-1,-1,-1,-1],"split_conditions":[1E0,3.3471E2,3.211E2,1.4E1,3.8703E2,1.4159E2,1.746E2,1.7272E2,1.92E2,2.577E3,1.3483E2,2.4353E2,6.4E1,1.01E2,9.4E1,2.104E3,9.9E1,1E0,6E0,2.322E3,1.1E1,1.727E3,1.4E1,7.5E1,2.4353E2,-3.868956E0,4.8377594E2,4.8603E2,2.494E3,6.7903E2,1.1E1,1.847E3,-1.0171488E1,2.8033E2,1.9594E2,1.198E3,2.304E3,1.2418972E2,1.01E2,4.3753E2,8.3E1,3.4082165E1,7.7E1,1.1E1,1.754E3,1.2213029E1,8.7E1,1.1937E2,8.9E1,6.1E1,3.301E1,3.6863E2,2.1E1,1.971E3,2.631E3,1E0,2.631E3,-4.2794127E0,1.571E3,3.377027E1,8.791876E1,3.7095135E1,-4.472217E0,-1.0995498E1,-5.11236E-2,9.887627E0,-1.2469887E0,3.2646473E1,-2.912962E0,2.9284729E1,-2.413346E0,-1.1961839E1,-4.156044E0,-3.9183242E0,4.2377663E0,-2.909441E0,2.075398E1,6.1061397E0,-1.3074089E1,1.2783493E0,-1.198116E1,-9.209833E-1,-9.822693E0,5.955078E-1,3.799581E1,1.0680526E1,-8.5022E0,9.696168E1,4.5810783E1,5.3774586E1,1.2241101E1,-3.072062E0,1.45008135E1,-4.806255E0,1.488263E0,-4.1356587E0,-1.3687251E1,-5.409958E-1,6.6682773E0,-3.429522E0,2.7376774E1,5.1084137E-1,-6.8971972E0,7.7622527E-1,4.727566E1],"split_indices":[4,2,3,0,2,7,7,2,7,1,7,3,0,0,0,1,6,5,6,1,0,1,0,6,2,0,0,2,1,3,6,1,0,2,2,1,1,0,0,3,6,0,0,0,1,0,6,3,0,6,7,3,6,1,1,5,1,0,1,0,0,0,0,0,0,0,0,0,0,0,0,0,0,0,0,0,0,0,0,0,0,0,0,0,0,0,0,0,0,0,0,0,0,0,0,0,0,0,0,0,0,0,0,0,0],"split_type":[0,0,0,0,0,0,0,0,0,0,0,0,0,0,0,0,0,0,0,0,0,0,0,0,0,0,0,0,0,0,0,0,0,0,0,0,0,0,0,0,0,0,0,0,0,0,0,0,0,0,0,0,0,0,0,0,0,0,0,0,0,0,0,0,0,0,0,0,0,0,0,0,0,0,0,0,0,0,0,0,0,0,0,0,0,0,0,0,0,0,0,0,0,0,0,0,0,0,0,0,0,0,0,0,0],"sum_hessian":[1.599E3,1.483E3,1.16E2,9.71E2,5.12E2,4.7E1,6.9E1,3.9E1,9.32E2,6.7E1,4.45E2,4.5E1,2E0,4E1,2.9E1,1E1,2.9E1,9.28E2,4E0,5.8E1,9E0,4.31E2,1.4E1,1.6E1,2.9E1,1E0,1E0,2.3E1,1.7E1,1.9E1,1E1,9E0,1E0,1.6E1,1.3E1,8.54E2,7.4E1,1E0,3E0,4.2E1,1.6E1,1E0,8E0,1.7E2,2.61E2,2E0,1.2E1,7E0,9E0,1.7E1,1.2E1,1.5E1,8E0,1.4E1,3E0,1E1,9E0,1E0,9E0,5E0,4E0,1.1E1,5E0,3E0,1E1,7.7E1,7.77E2,3.6E1,3.8E1,1E0,2E0,3.5E1,7E0,8E0,8E0,4E0,4E0,1E0,1.69E2,3.2E1,2.29E2,4E0,8E0,1E0,6E0,6E0,3E0,7E0,1E1,5E0,7E0,5E0,1E1,5E0,3E0,8E0,6E0,1E0,2E0,4E0,6E0,5E0,4E0,1E0,8E0],"tree_param":{"num_deleted":"0","num_feature":"8","num_nodes":"105","size_leaf_vector":"1"}},{"base_weights":[3.183494E0,-1.8527987E1,2.7853952E2,2.0616419E1,-9.266022E1,5.7168195E2,7.3548416E1,2.2734555E2,1.1731338E1,-3.1843569E1,-9.959813E1,3.9831525E2,3.039411E3,8.08887E-1,1.7050749E2,5.189427E2,1.12848404E2,8.715713E0,5.6968823E2,-7.084361E1,1.46841E2,-1.14199905E2,-8.935985E1,2.7621042E2,6.576827E2,-3.6755083E0,4.5958716E2,4.465998E1,-5.7704178E1,6.525903E1,3.463676E2,5.901628E2,-9.662913E0,4.99876E2,6.735086E1,-2.0838156E0,1.3171413E2,1.1798025E2,1.22209045E2,-9.676449E1,4.0503046E-1,3.2378056E1,9.120543E1,-4.0514744E1,-1.190488E2,1.613113E1,-1.04309326E2,3.4565894E2,5.260781E1,7.521055E2,2.3359927E2,6.2602303E1,-1.018037E1,-8.10072E1,4.4108208E1,1.449414E2,-2.891747E1,-4.065442E0,3.8913525E2,3.0956083E1,8.088526E1,1.243975E1,6.2541653E1,1.37846775E1,-5.4128885E0,8.91154E0,-1.1224504E0,2.6331533E1,-6.3568764E0,2.7820494E1,-2.2524562E0,-1.3084206E1,-5.699489E0,4.381072E0,-4.305852E0,-2.6766846E0,1.9093662E1,2.8490217E0,-8.720412E0,-1.2282291E1,-8.570296E0,7.0895715E0,-3.371777E0,-1.1790094E1,-6.134295E0,9.534209E0,4.578468E1,1.387047E1,-8.968947E0,2.6865097E1,8.296898E1,3.1788038E1,-9.6220094E-1,1.133235E1,-2.3253143E0,-3.7680442E0,-1.2514057E1,-5.1394653E-1,6.223726E0,-3.1551595E0,2.5030191E1,4.6827188E-1,-6.3454204E0,7.3741454E-1,4.3073383E1],"categories":[],"categories_nodes":[],"categories_segments":[],"categories_sizes":[],"default_left":[0,0,0,0,0,0,0,0,0,0,0,0,0,0,0,0,0,0,0,0,0,0,0,0,0,0,0,0,0,0,0,0,0,0,0,0,0,0,0,0,0,0,0,0,0,0,0,0,0,0,0,0,0,0,0,0,0,0,0,0,0,0,0,0,0,0,0,0,0,0,0,0,0,0,0,0,0,0,0,0,0,0,0,0,0,0,0,0,0,0,0,0,0,0,0,0,0,0,0,0,0,0,0,0,0],"id":5,"left_children":[1,3,5,7,9,11,13,15,17,19,21,23,25,27,29,31,33,35,37,39,41,43,45,47,49,-1,-1,51,53,55,57,59,-1,61,63,65,67,-1,69,71,73,-1,75,77,79,81,83,85,87,89,91,93,-1,95,97,99,101,-1,103,-1,-1,-1,-1,-1,-1,-1,-1,-1,-1,-1,-1,-1,-1,-1,-1,-1,-1,-1,-1,-1,-1,-1,-1,-1,-1,-1,-1,-1,-1,-1,-1,-1,-1,-1,-1,-1,-1,-1,-1,-1,-1,-1,-1,-1,-1],"loss_changes":[9.570581E6,4.308274E6,6.98867E6,1.7827075E6,2.132835E5,1.932482E7,4.9355503E5,1.2769198E6,1.5648901E6,3.8671288E5,5.85635E4,1.275162E6,1.4532714E7,1.077774E5,5.326667E5,5.39279E5,4.94597E5,1.2342881E6,1.2208846E6,8.314642E4,6.891078E4,6.1633E4,4.3536725E5,4.942685E5,3.849125E5,0E0,0E0,6.944272E4,4.627874E4,1.5427547E5,1.9789238E5,3.6325875E5,0E0,6.3613125E4,2.4724862E5,7.1374844E5,1.9441988E6,0E0,9.657783E4,3.726597E4,2.6411771E4,0E0,1.1100041E5,4.4367844E4,1.137175E4,9.793884E4,1.335075E5,6.5841E5,1.2270255E5,1.896965E5,8.505447E4,9.843831E4,0E0,2.3966984E4,3.8911191E3,2.1244673E5,1.1901547E4,0E0,1.5563062E5,0E0,0E0,0E0,0E0,0E0,0E0,0E0,0E0,0E0,0E0,0E0,0E0,0E0,0E0,0E0,0E0,0E0,0E0,0E0,0E0,0E0,0E0,0E0,0E0,0E0,0E0,0E0,0E0,0E0,0E0,0E0,0E0,0E0,0E0,0E0,0E0,0E0,0E0,0E0,0E0,0E0,0E0,0E0,0E0,0E0,0E0],"parents":[2147483647,0,0,1,1,2,2,3,3,4,4,5,5,6,6,7,7,8,8,9,9,10,10,11,11,12,12,13,13,14,14,15,15,16,16,17,17,18,18,19,19,20,20,21,21,22,22,23,23,24,24,27,27,28,28,29,29,30,30,31,31,33,33,34,34,35,35,36,36,38,38,39,39,40,40,42,42,43,43,44,44,45,45,46,46,47,47,48,48,49,49,50,50,51,51,53,53,54,54,55,55,56,56,58,58],"right_children":[2,4,6,8,10,12,14,16,18,20,22,24,26,28,30,32,34,36,38,40,42,44,46,48,50,-1,-1,52,54,56,58,60,-1,62,64,66,68,-1,70,72,74,-1,76,78,80,82,84,86,88,90,92,94,-1,96,98,100,102,-1,104,-1,-1,-1,-1,-1,-1,-1,-1,-1,-1,-1,-1,-1,-1,-1,-1,-1,-1,-1,-1,-1,-1,-1,-1,-1,-1,-1,-1,-1,-1,-1,-1,-1,-1,-1,-1,-1,-1,-1,-1,-1,-1,-1,-1,-1,-1],"split_conditions":[1E0,3.3471E2,3.211E2,1.4E1,3.8703E2,1.4159E2,1.746E2,1.7272E2,1.92E2,2.577E3,1.727E3,2.9591E2,6.4E1,1.01E2,9.4E1,2.104E3,1.198E3,1E0,6E0,2.322E3,1.1E1,1.4E1,1.754E3,2.492E3,2.304E3,-3.6755083E0,4.5958716E2,1.37E2,2.494E3,6.7903E2,1.1E1,1.847E3,-9.662913E0,1.3E1,1.06E2,1.198E3,2.492E3,1.1798025E2,1.01E2,3.5599E2,3.405E2,3.2378056E1,7.7E1,9.5E1,1.26E2,8.1E1,6.3923E2,1.885E3,6.5E1,3.1E1,6.6E1,4.8603E2,-1.018037E1,1.971E3,2.631E3,1E0,2.631E3,-4.065442E0,1.571E3,3.0956083E1,8.088526E1,1.243975E1,6.2541653E1,1.37846775E1,-5.4128885E0,8.91154E0,-1.1224504E0,2.6331533E1,-6.3568764E0,2.7820494E1,-2.2524562E0,-1.3084206E1,-5.699489E0,4.381072E0,-4.305852E0,-2.6766846E0,1.9093662E1,2.8490217E0,-8.720412E0,-1.2282291E1,-8.570296E0,7.0895715E0,-3.371777E0,-1.1790094E1,-6.134295E0,9.534209E0,4.578468E1,1.387047E1,-8.968947E0,2.6865097E1,8.296898E1,3.1788038E1,-9.6220094E-1,1.133235E1,-2.3253143E0,-3.7680442E0,-1.2514057E1,-5.1394653E-1,6.223726E0,-3.1551595E0,2.5030191E1,4.6827188E-1,-6.3454204E0,7.3741454E-1,4.3073383E1],"split_indices":[4,2,3,0,3,7,7,2,7,1,1,3,0,0,0,1,1,5,6,1,0,0,1,1,1,0,0,6,1,3,6,1,0,0,6,1,1,0,0,2,2,0,0,6,6,0,3,1,0,6,0,2,0,1,1,5,1,0,1,0,0,0,0,0,0,0,0,0,0,0,0,0,0,0,0,0,0,0,0,0,0,0,0,0,0,0,0,0,0,0,0,0,0,0,0,0,0,0,0,0,0,0,0,0,0],"split_type":[0,0,0,0,0,0,0,0,0,0,0,0,0,0,0,0,0,0,0,0,0,0,0,0,0,0,0,0,0,0,0,0,0,0,0,0,0,0,0,0,0,0,0,0,0,0,0,0,0,0,0,0,0,0,0,0,0,0,0,0,0,0,0,0,0,0,0,0,0,0,0,0,0,0,0,0,0,0,0,0,0,0,0,0,0,0,0,0,0,0,0,0,0,0,0,0,0,0,0,0,0,0,0,0,0],"sum_hessian":[1.599E3,1.483E3,1.16E2,9.71E2,5.12E2,4.7E1,6.9E1,3.9E1,9.32E2,5.3E1,4.59E2,4.5E1,2E0,4E1,2.9E1,1E1,2.9E1,9.28E2,4E0,4.4E1,9E0,1.85E2,2.74E2,3.2E1,1.3E1,1E0,1E0,2.3E1,1.7E1,1.9E1,1E1,9E0,1E0,2E0,2.7E1,8.54E2,7.4E1,1E0,3E0,3.2E1,1.2E1,1E0,8E0,1.2E1,1.73E2,3.4E1,2.4E2,2.4E1,8E0,1E1,3E0,2.1E1,2E0,1.4E1,3E0,1E1,9E0,1E0,9E0,5E0,4E0,1E0,1E0,1.7E1,1E1,7.7E1,7.77E2,4.4E1,3E1,1E0,2E0,1.6E1,1.6E1,6E0,6E0,4E0,4E0,5E0,7E0,1.53E2,2E1,1.6E1,1.8E1,1.81E2,5.9E1,8E0,1.6E1,5E0,3E0,2E0,8E0,2E0,1E0,1.3E1,8E0,8E0,6E0,1E0,2E0,4E0,6E0,5E0,4E0,1E0,8E0],"tree_param":{"num_deleted":"0","num_feature":"8","num_nodes":"105","size_leaf_vector":"1"}},{"base_weights":[3.519385E0,-1.6442038E1,2.5667523E2,1.8921896E1,-8.341534E1,5.487569E2,7.953647E1,5.3090717E1,-2.9658503E1,-3.4470913E1,-9.069068E1,3.686424E2,2.8874404E3,1.4662279E2,-3.7010543E0,3.0814438E1,3.403008E2,-4.2136536E1,1.0663718E2,-6.29557E1,1.370364E2,-9.274652E1,-2.5436575E1,2.5041425E2,7.219311E2,-3.4917328E0,4.3660782E2,3.9405814E2,8.409027E1,-1.0452816E2,3.1342983E1,1.2068023E1,2.8077826E2,5.485887E2,2.240033E2,-3.341163E1,-1.2444246E2,3.6372073E2,4.9770332E1,-8.80765E1,4.2884307E0,2.6700724E1,7.11678E1,-1.0511288E2,-8.432135E1,1.1508335E1,-5.5907593E1,3.4831995E2,1.0970609E2,3.4306282E1,8.3529425E2,6.7499094E0,4.916613E1,-5.567739E0,2.4892728E2,-1.5125717E0,-1.1381275E1,-4.442819E1,6.748729E1,6.310336E-1,7.1724655E1,-6.695386E0,5.489053E1,2.7654066E1,7.811309E1,2.4683441E1,-4.8534102E0,-4.6679254E0,1.0303184E1,-1.26919E1,-2.0119972E0,6.8739443E0,4.089691E1,1.59636E1,2.5806386E0,-9.836389E0,-3.0773723E0,-6.649434E0,2.4205763E0,-7.7241526E0,1.756617E1,5.658382E0,-1.06396885E1,1.0058327E0,-9.749618E0,1.2319031E-2,-8.082385E0,3.2935674E0,4.5860462E1,3.1523489E1,6.310629E-1,9.2950386E1,1.3501828E1,-5.3184543E0,6.165256E0,6.526381E0,4.2171345E1,8.28747E0,-7.070039E0,-5.364513E-1,1.5922261E1],"categories":[],"categories_nodes":[],"categories_segments":[],"categories_sizes":[],"default_left":[0,0,0,0,0,0,0,0,0,0,0,0,0,0,0,0,0,0,0,0,0,0,0,0,0,0,0,0,0,0,0,0,0,0,0,0,0,0,0,0,0,0,0,0,0,0,0,0,0,0,0,0,0,0,0,0,0,0,0,0,0,0,0,0,0,0,0,0,0,0,0,0,0,0,0,0,0,0,0,0,0,0,0,0,0,0,0,0,0,0,0,0,0,0,0,0,0,0,0,0,0],"id":6,"left_children":[1,3,5,7,9,11,13,15,17,19,21,23,25,27,29,31,33,35,37,39,41,43,45,47,49,-1,-1,51,53,55,57,59,61,63,65,67,69,71,73,75,77,-1,79,81,83,-1,85,87,89,-1,91,-1,-1,93,95,-1,-1,97,99,-1,-1,-1,-1,-1,-1,-1,-1,-1,-1,-1,-1,-1,-1,-1,-1,-1,-1,-1,-1,-1,-1,-1,-1,-1,-1,-1,-1,-1,-1,-1,-1,-1,-1,-1,-1,-1,-1,-1,-1,-1,-1],"loss_changes":[8.089582E6,3.516342E6,6.009815E6,1.6150316E6,1.7954675E5,1.746972E7,4.1376594E5,3.642756E6,6.881756E5,3.40831E5,5.747275E4,1.5735025E6,1.3115778E7,6.012465E5,1.23411445E5,2.4848382E6,8.702725E5,2.6082525E5,4.789616E5,1.0004209E5,6.660764E4,3.6146E4,7.0660805E4,4.1639938E5,1.42939E5,0E0,0E0,2.2179888E5,5.0387053E5,5.7490938E3,7.420445E4,2.0052714E6,3.4864975E6,6.69663E5,1.8620525E5,6.112534E5,6.4889375E3,5.1972188E4,7.223202E4,2.2321281E4,2.5576213E4,0E0,1.3763133E5,4.152325E4,3.267605E5,0E0,1.8158965E4,6.457545E5,3.1677184E5,0E0,3.36309E5,0E0,0E0,7.689773E4,3.5329144E5,0E0,0E0,3.596001E4,1.2114967E5,0E0,0E0,0E0,0E0,0E0,0E0,0E0,0E0,0E0,0E0,0E0,0E0,0E0,0E0,0E0,0E0,0E0,0E0,0E0,0E0,0E0,0E0,0E0,0E0,0E0,0E0,0E0,0E0,0E0,0E0,0E0,0E0,0E0,0E0,0E0,0E0,0E0,0E0,0E0,0E0,0E0,0E0],"parents":[2147483647,0,0,1,1,2,2,3,3,4,4,5,5,6,6,7,7,8,8,9,9,10,10,11,11,12,12,13,13,14,14,15,15,16,16,17,17,18,18,19,19,20,20,21,21,22,22,23,23,24,24,27,27,28,28,29,29,30,30,31,31,32,32,33,33,34,34,35,35,36,36,37,37,38,38,39,39,40,40,42,42,43,43,44,44,46,46,47,47,48,48,50,50,53,53,54,54,57,57,58,58],"right_children":[2,4,6,8,10,12,14,16,18,20,22,24,26,28,30,32,34,36,38,40,42,44,46,48,50,-1,-1,52,54,56,58,60,62,64,66,68,70,72,74,76,78,-1,80,82,84,-1,86,88,90,-1,92,-1,-1,94,96,-1,-1,98,100,-1,-1,-1,-1,-1,-1,-1,-1,-1,-1,-1,-1,-1,-1,-1,-1,-1,-1,-1,-1,-1,-1,-1,-1,-1,-1,-1,-1,-1,-1,-1,-1,-1,-1,-1,-1,-1,-1,-1,-1,-1,-1],"split_conditions":[1E0,3.3471E2,3.1137E2,2.304E3,3.8703E2,1.4159E2,1.993E3,2.29E3,2.826E3,2.577E3,1.3483E2,2.9591E2,6.4E1,2.92E2,2.322E3,1E0,6.4E1,2.76E3,2.4838E2,2.322E3,2.4E1,1.727E3,1.4E1,7.7E1,3.1E1,-3.4917328E0,4.3660782E2,3.9E1,6.5963E2,1.3E1,3E1,1.92E2,1.885E3,7.6E1,3.0658E2,2.707E3,1E0,2.4353E2,2.4E1,4.3753E2,3.2E1,2.6700724E1,7.7E1,1.1E1,1.754E3,1.1508335E1,8.7E1,3E1,5.9E1,3.4306282E1,2.304E3,6.7499094E0,4.916613E1,1.571E3,1.571E3,-1.5125717E0,-1.1381275E1,3.9E1,9.4E1,6.310336E-1,7.1724655E1,-6.695386E0,5.489053E1,2.7654066E1,7.811309E1,2.4683441E1,-4.8534102E0,-4.6679254E0,1.0303184E1,-1.26919E1,-2.0119972E0,6.8739443E0,4.089691E1,1.59636E1,2.5806386E0,-9.836389E0,-3.0773723E0,-6.649434E0,2.4205763E0,-7.7241526E0,1.756617E1,5.658382E0,-1.06396885E1,1.0058327E0,-9.749618E0,1.2319031E-2,-8.082385E0,3.2935674E0,4.5860462E1,3.1523489E1,6.310629E-1,9.2950386E1,1.3501828E1,-5.3184543E0,6.165256E0,6.526381E0,4.2171345E1,8.28747E0,-7.070039E0,-5.364513E-1,1.5922261E1],"split_indices":[4,2,3,1,2,7,1,1,1,1,7,3,0,2,1,5,0,1,2,1,0,1,0,6,6,0,0,0,3,0,6,7,1,6,2,1,5,2,6,3,0,0,0,0,1,0,6,6,0,0,1,0,0,1,1,0,0,0,0,0,0,0,0,0,0,0,0,0,0,0,0,0,0,0,0,0,0,0,0,0,0,0,0,0,0,0,0,0,0,0,0,0,0,0,0,0,0,0,0,0,0],"split_type":[0,0,0,0,0,0,0,0,0,0,0,0,0,0,0,0,0,0,0,0,0,0,0,0,0,0,0,0,0,0,0,0,0,0,0,0,0,0,0,0,0,0,0,0,0,0,0,0,0,0,0,0,0,0,0,0,0,0,0,0,0,0,0,0,0,0,0,0,0,0,0,0,0,0,0,0,0,0,0,0,0,0,0,0,0,0,0,0,0,0,0,0,0,0,0,0,0,0,0,0,0],"sum_hessian":[1.599E3,1.483E3,1.16E2,9.71E2,5.12E2,4.3E1,7.3E1,5.7E2,4.01E2,6.7E1,4.45E2,4.1E1,2E0,4E1,3.3E1,5.3E2,4E1,3.68E2,3.3E1,5.8E1,9E0,4.31E2,1.4E1,3.2E1,9E0,1E0,1E0,7E0,3.3E1,8E0,2.5E1,4.94E2,3.6E1,1.3E1,2.7E1,3.34E2,3.4E1,5E0,2.8E1,4.2E1,1.6E1,2E0,7E0,1.7E2,2.61E2,2E0,1.2E1,1.8E1,1.4E1,3E0,6E0,2E0,5E0,2.2E1,1.1E1,1E0,7E0,8E0,1.7E1,4.91E2,3E0,1.6E1,2E1,7E0,6E0,2.5E1,2E0,3.05E2,2.9E1,3.3E1,1E0,1E0,4E0,4E0,2.4E1,3.5E1,7E0,3E0,1.3E1,3E0,4E0,1E0,1.69E2,3.2E1,2.29E2,4E0,8E0,5E0,1.3E1,4E0,1E1,5E0,1E0,1.3E1,9E0,6E0,5E0,1E0,7E0,1E1,7E0],"tree_param":{"num_deleted":"0","num_feature":"8","num_nodes":"101","size_leaf_vector":"1"}},{"base_weights":[3.840482E0,-1.4587252E1,2.3754062E2,1.4211784E1,-8.164468E1,5.087717E2,7.305809E1,2.0822095E2,6.0328298E0,-3.0758665E1,-8.408667E1,3.3706546E2,2.7430684E3,1.3453271E2,-3.2218533E0,4.6769983E2,1.1251817E2,3.5453973E0,4.9932782E2,-4.99462E1,1.0741114E1,-1.00416214E2,-7.7180336E1,2.2783672E2,6.6381384E2,-3.3171463E0,4.147774E2,3.616418E2,7.713844E1,-9.5507996E1,2.8847267E1,2.2398514E2,7.153604E1,5.9383022E1,7.783616E1,9.5263565E1,-9.2760935E0,1.08494995E2,8.16848E1,3.8451905E0,-6.3634377E1,3.3569263E1,-1.0290828E2,-5.246118E1,-9.52051E1,2.8979517E2,3.0414734E1,3.1733307E1,7.669723E2,6.299916E0,4.506895E1,-4.9741483E0,2.280927E2,-1.436943E0,-1.0385414E1,6.513414E1,-3.5725147E1,-5.2009254E0,4.4398327E1,3.6997476E0,4.4666477E1,1.0134742E0,2.308918E1,8.57592E0,-1.8708185E0,2.2843235E1,-4.3375163E0,-2.2070825E0,5.3754625E0,-6.7724357E0,-1.142334E-1,5.567695E0,-5.323052E-1,-6.541958E0,-1.0681507E1,-6.9550056E0,3.4591045E0,-1.0930654E1,-8.721209E0,6.7501497E0,3.9043327E1,1.0124614E1,-8.343606E0,8.520452E1,1.2826736E1,1.70143E1,-2.0667791E0,5.966978E0,3.8657066E1,1.1727436E1,-8.1828994E-1,-1.5300324E0,-1.0977428E1],"categories":[],"categories_nodes":[],"categories_segments":[],"categories_sizes":[],"default_left":[0,0,0,0,0,0,0,0,0,0,0,0,0,0,0,0,0,0,0,0,0,0,0,0,0,0,0,0,0,0,0,0,0,0,0,0,0,0,0,0,0,0,0,0,0,0,0,0,0,0,0,0,0,0,0,0,0,0,0,0,0,0,0,0,0,0,0,0,0,0,0,0,0,0,0,0,0,0,0,0,0,0,0,0,0,0,0,0,0,0,0,0,0],"id":7,"left_children":[1,3,5,7,9,11,13,15,17,19,21,23,25,27,29,31,33,35,37,39,-1,41,43,45,47,-1,-1,49,51,53,55,57,-1,-1,59,61,63,-1,65,67,69,71,73,75,77,79,81,-1,83,-1,-1,85,87,-1,-1,89,91,-1,-1,-1,-1,-1,-1,-1,-1,-1,-1,-1,-1,-1,-1,-1,-1,-1,-1,-1,-1,-1,-1,-1,-1,-1,-1,-1,-1,-1,-1,-1,-1,-1,-1,-1,-1],"loss_changes":[6.893968E6,2.867045E6,5.1825245E6,1.6474206E6,5.2835E4,1.5955684E7,3.4744028E5,9.90355E5,1.2228135E6,6.3689812E4,4.018E4,1.347752E6,1.1836984E7,5.065288E5,1.0337935E5,5.0371375E5,4.8795028E5,1.1697916E6,1.1342811E6,1.4970805E4,0E0,4.452425E4,1.3000925E5,3.9484062E5,1.140385E5,0E0,0E0,1.8435444E5,4.225729E5,4.602422E3,6.324834E4,4.4811897E5,0E0,0E0,4.5041125E5,1.4062564E6,7.8414556E5,0E0,8.331726E4,7.653677E3,4.0120977E3,2.8758286E3,1.0734E4,1.95797E5,1.007925E4,5.329255E5,8.1025484E4,0E0,2.7106575E5,0E0,0E0,6.672567E4,2.9722925E5,0E0,0E0,6.594667E4,1.3444824E4,0E0,0E0,0E0,0E0,0E0,0E0,0E0,0E0,0E0,0E0,0E0,0E0,0E0,0E0,0E0,0E0,0E0,0E0,0E0,0E0,0E0,0E0,0E0,0E0,0E0,0E0,0E0,0E0,0E0,0E0,0E0,0E0,0E0,0E0,0E0,0E0],"parents":[2147483647,0,0,1,1,2,2,3,3,4,4,5,5,6,6,7,7,8,8,9,9,10,10,11,11,12,12,13,13,14,14,15,15,16,16,17,17,18,18,19,19,21,21,22,22,23,23,24,24,27,27,28,28,29,29,30,30,31,31,34,34,35,35,36,36,38,38,39,39,40,40,41,41,42,42,43,43,44,44,45,45,46,46,48,48,51,51,52,52,55,55,56,56],"right_children":[2,4,6,8,10,12,14,16,18,20,22,24,26,28,30,32,34,36,38,40,-1,42,44,46,48,-1,-1,50,52,54,56,58,-1,-1,60,62,64,-1,66,68,70,72,74,76,78,80,82,-1,84,-1,-1,86,88,-1,-1,90,92,-1,-1,-1,-1,-1,-1,-1,-1,-1,-1,-1,-1,-1,-1,-1,-1,-1,-1,-1,-1,-1,-1,-1,-1,-1,-1,-1,-1,-1,-1,-1,-1,-1,-1,-1,-1],"split_conditions":[1E0,3.8703E2,3.1137E2,1.4E1,1.4E1,1.4159E2,1.993E3,1.8436E2,1.92E2,6.211E1,1.558E3,2.9591E2,6.4E1,2.92E2,2.322E3,5.3E1,1.198E3,1.5235E2,6E0,0E0,1.0741114E1,3.8703E2,1.971E3,2.492E3,3.1E1,-3.3171463E0,4.147774E2,3.9E1,6.5963E2,1.3E1,4.8503E2,1.572E2,7.153604E1,5.9383022E1,2.826E3,1.3974E2,1.198E3,1.08494995E2,1.01E2,8.8E1,2.631E3,9.1E1,4.0255E2,1.962E3,4.9573E2,1.885E3,6.5E1,3.1733307E1,2.304E3,6.299916E0,4.506895E1,1.1E1,1.571E3,-1.436943E0,-1.0385414E1,2.704E3,1.13E2,-5.2009254E0,4.4398327E1,3.6997476E0,4.4666477E1,1.0134742E0,2.308918E1,8.57592E0,-1.8708185E0,2.2843235E1,-4.3375163E0,-2.2070825E0,5.3754625E0,-6.7724357E0,-1.142334E-1,5.567695E0,-5.323052E-1,-6.541958E0,-1.0681507E1,-6.9550056E0,3.4591045E0,-1.0930654E1,-8.721209E0,6.7501497E0,3.9043327E1,1.0124614E1,-8.343606E0,8.520452E1,1.2826736E1,1.70143E1,-2.0667791E0,5.966978E0,3.8657066E1,1.1727436E1,-8.1828994E-1,-1.5300324E0,-1.0977428E1],"split_indices":[4,2,3,0,0,7,1,3,7,7,1,3,0,2,1,6,1,3,6,7,0,3,1,1,6,0,0,0,3,0,2,3,0,0,1,2,1,0,0,6,1,0,2,1,3,1,0,0,1,0,0,0,1,0,0,1,0,0,0,0,0,0,0,0,0,0,0,0,0,0,0,0,0,0,0,0,0,0,0,0,0,0,0,0,0,0,0,0,0,0,0,0,0],"split_type":[0,0,0,0,0,0,0,0,0,0,0,0,0,0,0,0,0,0,0,0,0,0,0,0,0,0,0,0,0,0,0,0,0,0,0,0,0,0,0,0,0,0,0,0,0,0,0,0,0,0,0,0,0,0,0,0,0,0,0,0,0,0,0,0,0,0,0,0,0,0,0,0,0,0,0,0,0,0,0,0,0,0,0,0,0,0,0,0,0,0,0,0,0],"sum_hessian":[1.599E3,1.483E3,1.16E2,1.038E3,4.45E2,4.3E1,7.3E1,4.1E1,9.97E2,2.1E1,4.24E2,4.1E1,2E0,4E1,3.3E1,1E1,3.1E1,9.93E2,4E0,1.9E1,2E0,1.22E2,3.02E2,3.2E1,9E0,1E0,1E0,7E0,3.3E1,8E0,2.5E1,6E0,4E0,1E0,3E1,1.21E2,8.72E2,1E0,3E0,4E0,1.5E1,2E0,1.2E2,1.29E2,1.73E2,2.4E1,8E0,3E0,6E0,2E0,5E0,2.2E1,1.1E1,1E0,7E0,1.6E1,9E0,3E0,3E0,2.8E1,2E0,7.5E1,4.6E1,7.8E1,7.94E2,1E0,2E0,3E0,1E0,1.4E1,1E0,1E0,1E0,1.3E1,1.07E2,1.08E2,2.1E1,5.8E1,1.15E2,8E0,1.6E1,5E0,3E0,5E0,1E0,1E0,2.1E1,6E0,5E0,9E0,7E0,8E0,1E0],"tree_param":{"num_deleted":"0","num_feature":"8","num_nodes":"93","size_leaf_vector":"1"}},{"base_weights":[4.1028686E0,-1.2894041E1,2.1965254E2,1.6134478E1,-6.787031E1,4.7127634E2,6.707011E1,1.9104723E2,8.618246E0,-2.3326496E1,-7.295182E1,3.0758127E2,2.6059148E3,1.2378531E2,-3.2943974E0,4.3337665E2,9.582487E1,6.0999436E0,4.747952E2,-5.555114E1,1.2401705E2,-7.697471E1,-4.777016E1,2.0649469E2,6.1040894E2,-3.1512895E0,3.9403854E2,3.3189874E2,7.11767E1,-8.727079E1,2.5901062E1,4.9408694E2,-8.686325E0,4.3986774E2,5.5540817E1,8.593477E1,-5.961874E0,1.0307025E2,7.8142746E1,-7.652207E1,1.955928E0,4.278423E1,1.9669302E2,-6.5706406E1,-8.4772804E1,9.8608E0,-5.6305756E1,2.6264737E2,2.7571148E1,2.9353312E1,7.0427954E2,5.8799205E0,4.1313206E1,-3.8268478E0,2.090021E2,-1.3650955E0,-9.476691E0,-4.19386E1,5.8381947E1,2.5224335E1,6.854819E1,9.566294E0,5.6413868E1,-3.1183488E0,1.4449252E1,9.134593E-1,2.082939E1,-3.4089363E0,2.5030377E0,2.1701073E1,-4.048349E0,-1.07508955E1,-4.1033893E0,-6.010415E0,2.6584365E0,8.838018E0,-2.1087876E-1,4.0505843E0,2.8731588E1,-7.221087E0,1.6400816E0,-6.680089E0,-9.253975E0,-6.225453E0,2.5150895E0,-7.566227E0,3.122197E1,9.280895E0,-7.7178345E0,7.810415E1,1.2185401E1,-4.6326838E0,5.605582E0,5.455523E0,3.5435646E1,7.2867236E0,-6.5397735E0,2.8165665E1,2.8680103E0],"categories":[],"categories_nodes":[],"categories_segments":[],"categories_sizes":[],"default_left":[0,0,0,0,0,0,0,0,0,0,0,0,0,0,0,0,0,0,0,0,0,0,0,0,0,0,0,0,0,0,0,0,0,0,0,0,0,0,0,0,0,0,0,0,0,0,0,0,0,0,0,0,0,0,0,0,0,0,0,0,0,0,0,0,0,0,0,0,0,0,0,0,0,0,0,0,0,0,0,0,0,0,0,0,0,0,0,0,0,0,0,0,0,0,0,0,0,0,0],"id":8,"left_children":[1,3,5,7,9,11,13,15,17,19,21,23,25,27,29,31,33,35,37,39,41,43,45,47,49,-1,-1,51,53,55,57,59,-1,61,63,65,67,-1,69,71,73,75,77,79,81,-1,83,85,87,-1,89,-1,-1,91,93,-1,-1,95,97,-1,-1,-1,-1,-1,-1,-1,-1,-1,-1,-1,-1,-1,-1,-1,-1,-1,-1,-1,-1,-1,-1,-1,-1,-1,-1,-1,-1,-1,-1,-1,-1,-1,-1,-1,-1,-1,-1,-1,-1],"loss_changes":[5.864718E6,2.3693808E6,4.460415E6,1.2762271E6,1.1441575E5,1.457338E7,2.957223E5,8.8147875E5,1.0924221E6,2.6328634E5,4.292225E4,1.1596505E6,1.068288E7,4.2526738E5,8.561921E4,3.9034138E5,3.9135262E5,8.950958E5,1.0219681E6,5.441864E4,5.0621375E4,2.9139E4,8.80142E4,3.2431075E5,9.072375E4,0E0,0E0,1.5318644E5,3.5227122E5,3.6731016E3,5.9739258E4,2.89968E5,0E0,7.435681E4,2.2050547E5,1.144556E6,7.0521444E5,0E0,7.467889E4,3.1877516E4,2.1467586E4,1.2468011E4,5.9132688E4,8.9838875E4,2.592325E4,0E0,3.20935E4,4.42893E5,6.8665484E4,0E0,2.177835E5,0E0,0E0,6.1132188E4,2.5006234E5,0E0,0E0,2.9004562E4,1.1129212E5,0E0,0E0,0E0,0E0,0E0,0E0,0E0,0E0,0E0,0E0,0E0,0E0,0E0,0E0,0E0,0E0,0E0,0E0,0E0,0E0,0E0,0E0,0E0,0E0,0E0,0E0,0E0,0E0,0E0,0E0,0E0,0E0,0E0,0E0,0E0,0E0,0E0,0E0,0E0,0E0],"parents":[2147483647,0,0,1,1,2,2,3,3,4,4,5,5,6,6,7,7,8,8,9,9,10,10,11,11,12,12,13,13,14,14,15,15,16,16,17,17,18,18,19,19,20,20,21,21,22,22,23,23,24,24,27,27,28,28,29,29,30,30,31,31,33,33,34,34,35,35,36,36,38,38,39,39,40,40,41,41,42,42,43,43,44,44,46,46,47,47,48,48,50,50,53,53,54,54,57,57,58,58],"right_children":[2,4,6,8,10,12,14,16,18,20,22,24,26,28,30,32,34,36,38,40,42,44,46,48,50,-1,-1,52,54,56,58,60,-1,62,64,66,68,-1,70,72,74,76,78,80,82,-1,84,86,88,-1,90,-1,-1,92,94,-1,-1,96,98,-1,-1,-1,-1,-1,-1,-1,-1,-1,-1,-1,-1,-1,-1,-1,-1,-1,-1,-1,-1,-1,-1,-1,-1,-1,-1,-1,-1,-1,-1,-1,-1,-1,-1,-1,-1,-1,-1,-1,-1],"split_conditions":[1E0,3.3471E2,3.1137E2,1.4E1,3.8703E2,1.4159E2,1.993E3,1.7272E2,1.92E2,2.577E3,6.211E1,2.9591E2,6.4E1,2.92E2,2.322E3,2.104E3,1.198E3,1.5235E2,6E0,2.322E3,1E0,5.9E1,2E1,2.492E3,3.1E1,-3.1512895E0,3.9403854E2,3.9E1,6.5963E2,1.3E1,3E1,1.847E3,-8.686325E0,1.3E1,2.29E3,1.3974E2,2.8424E2,1.0307025E2,1.01E2,3.5599E2,3.2E1,2.704E3,1.27E2,6.7033E2,5.3E1,9.8608E0,5.3453E2,1.543E3,6.5E1,2.9353312E1,2.304E3,5.8799205E0,4.1313206E1,1.571E3,1.571E3,-1.3650955E0,-9.476691E0,3.9E1,3.8E1,2.5224335E1,6.854819E1,9.566294E0,5.6413868E1,-3.1183488E0,1.4449252E1,9.134593E-1,2.082939E1,-3.4089363E0,2.5030377E0,2.1701073E1,-4.048349E0,-1.07508955E1,-4.1033893E0,-6.010415E0,2.6584365E0,8.838018E0,-2.1087876E-1,4.0505843E0,2.8731588E1,-7.221087E0,1.6400816E0,-6.680089E0,-9.253975E0,-6.225453E0,2.5150895E0,-7.566227E0,3.122197E1,9.280895E0,-7.7178345E0,7.810415E1,1.2185401E1,-4.6326838E0,5.605582E0,5.455523E0,3.5435646E1,7.2867236E0,-6.5397735E0,2.8165665E1,2.8680103E0],"split_indices":[4,2,3,0,3,7,1,2,7,1,7,3,0,2,1,1,1,3,6,1,7,6,0,1,6,0,0,0,3,0,6,1,0,0,1,2,3,0,0,2,0,1,6,2,0,0,2,1,0,0,1,0,0,1,1,0,0,0,6,0,0,0,0,0,0,0,0,0,0,0,0,0,0,0,0,0,0,0,0,0,0,0,0,0,0,0,0,0,0,0,0,0,0,0,0,0,0,0,0],"split_type":[0,0,0,0,0,0,0,0,0,0,0,0,0,0,0,0,0,0,0,0,0,0,0,0,0,0,0,0,0,0,0,0,0,0,0,0,0,0,0,0,0,0,0,0,0,0,0,0,0,0,0,0,0,0,0,0,0,0,0,0,0,0,0,0,0,0,0,0,0,0,0,0,0,0,0,0,0,0,0,0,0,0,0,0,0,0,0,0,0,0,0,0,0,0,0,0,0,0,0],"sum_hessian":[1.599E3,1.483E3,1.16E2,9.71E2,5.12E2,4.3E1,7.3E1,3.9E1,9.32E2,5.3E1,4.59E2,4.1E1,2E0,4E1,3.3E1,1E1,2.9E1,9.28E2,4E0,4.4E1,9E0,3.94E2,6.5E1,3.2E1,9E0,1E0,1E0,7E0,3.3E1,8E0,2.5E1,9E0,1E0,2E0,2.7E1,1.21E2,8.07E2,1E0,3E0,3.2E1,1.2E1,5E0,4E0,1.65E2,2.29E2,3E0,6.2E1,2.4E1,8E0,3E0,6E0,2E0,5E0,2.2E1,1.1E1,1E0,7E0,8E0,1.7E1,5E0,4E0,1E0,1E0,1.4E1,1.3E1,7.5E1,4.6E1,4.23E2,3.84E2,1E0,2E0,1.6E1,1.6E1,3E0,9E0,2E0,3E0,2E0,2E0,1.53E2,1.2E1,7.2E1,1.57E2,5.8E1,4E0,3E0,2.1E1,5E0,3E0,5E0,1E0,1.3E1,9E0,6E0,5E0,1E0,7E0,1E0,1.6E1],"tree_param":{"num_deleted":"0","num_feature":"8","num_nodes":"99","size_leaf_vector":"1"}},{"base_weights":[4.291042E0,-1.4988174E1,1.7092589E2,9.799415E0,-5.608946E1,3.764872E2,3.490636E1,2.3674033E2,6.19016E0,-6.338559E1,2.2256416E2,2.6709882E2,3.743366E2,-1.3380689E1,1.03056755E2,3.4928418E2,-3.5695457E1,9.205829E1,-2.4792156E0,7.763775E1,-6.570895E1,9.791674E1,8.904335E1,1.5811006E2,5.655312E2,2.3296799E1,-8.260539E1,2.2204245E2,2.8729801E1,-1.00551605E1,4.1043835E2,-5.4670978E0,-4.8214517E0,1.5279084E1,1.501451E2,-8.986125E1,1.773084E1,2.5754215E1,2.295693E1,-7.970078E1,-5.6686794E1,1.7277374E2,-7.948001E1,2.9062122E2,7.9683967E0,9.473457E2,1.2087982E2,6.769768E1,-7.412792E1,-1.1637882E2,-1.317621E1,-1.1095184E1,2.5614032E2,5.0310253E1,-7.628624E0,4.988913E1,1.7514933E1,-1.0616089E0,3.3839113E-1,5.0771637E0,-1.1529131E1,4.2596046E1,1.06119795E1,6.8951297E0,-1.1052368E1,2.2467451E1,3.4998542E-1,-1.9144377E0,1.5883304E1,-1.4922551E1,-7.7531624E0,2.602335E0,-6.6971574E0,2.9751127E0,3.4411423E1,-1.9845451E0,-8.942729E0,-1.7285559E1,3.364466E1,-1.4677417E1,5.641508E0,4.9168835E1,1.3939954E2,3.7482563E-2,3.6176487E1,2.6043909E0,4.061311E1,-1.3875079E1,-4.086599E0,-4.8465166E0,-1.3869777E1,-5.802414E0,8.091172E0,1.2935733E1,-1.4600011E1,4.160979E0,3.1086597E1,7.3608093E0,-4.828359E0],"categories":[],"categories_nodes":[],"categories_segments":[],"categories_sizes":[],"default_left":[0,0,0,0,0,0,0,0,0,0,0,0,0,0,0,0,0,0,0,0,0,0,0,0,0,0,0,0,0,0,0,0,0,0,0,0,0,0,0,0,0,0,0,0,0,0,0,0,0,0,0,0,0,0,0,0,0,0,0,0,0,0,0,0,0,0,0,0,0,0,0,0,0,0,0,0,0,0,0,0,0,0,0,0,0,0,0,0,0,0,0,0,0,0,0,0,0,0,0],"id":9,"left_children":[1,3,5,7,9,11,13,15,17,19,21,23,-1,25,27,29,31,33,35,37,39,-1,41,43,45,47,49,51,53,-1,55,-1,57,59,61,63,65,-1,67,69,71,73,75,77,79,81,83,85,87,89,91,93,95,97,-1,-1,-1,-1,-1,-1,-1,-1,-1,-1,-1,-1,-1,-1,-1,-1,-1,-1,-1,-1,-1,-1,-1,-1,-1,-1,-1,-1,-1,-1,-1,-1,-1,-1,-1,-1,-1,-1,-1,-1,-1,-1,-1,-1,-1],"loss_changes":[5.1427045E6,1.4625301E6,4.6282775E6,7.32437E5,1.1119779E6,2.330778E7,3.3374788E5,4.4172156E5,6.5755375E5,1.7777175E5,1.3271235E6,2.024759E6,0E0,1.5426373E5,3.650622E5,3.163635E5,2.6656582E3,3.5895438E5,1.4196881E6,8.26235E4,6.0999E4,0E0,1.971689E5,9.725614E5,2.771649E6,1.7804803E5,4.7708656E4,1.3003394E5,6.5027902E4,0E0,9.9927625E4,0E0,1.7856519E2,1.7268748E5,5.1336856E5,5.0311988E5,1.922307E6,0E0,4.8805254E4,1.8743125E4,2.73102E5,2.1031228E5,1.1912812E3,6.1037075E5,1.8820261E5,1.146262E6,2.6111506E5,3.8413956E5,2.2273078E4,1.4498656E4,3.8452023E4,7.572939E4,1.5142944E5,5.6385613E4,0E0,0E0,0E0,0E0,0E0,0E0,0E0,0E0,0E0,0E0,0E0,0E0,0E0,0E0,0E0,0E0,0E0,0E0,0E0,0E0,0E0,0E0,0E0,0E0,0E0,0E0,0E0,0E0,0E0,0E0,0E0,0E0,0E0,0E0,0E0,0E0,0E0,0E0,0E0,0E0,0E0,0E0,0E0,0E0,0E0],"parents":[2147483647,0,0,1,1,2,2,3,3,4,4,5,5,6,6,7,7,8,8,9,9,10,10,11,11,13,13,14,14,15,15,16,16,17,17,18,18,19,19,20,20,22,22,23,23,24,24,25,25,26,26,27,27,28,28,30,30,32,32,33,33,34,34,35,35,36,36,38,38,39,39,40,40,41,41,42,42,43,43,44,44,45,45,46,46,47,47,48,48,49,49,50,50,51,51,52,52,53,53],"right_children":[2,4,6,8,10,12,14,16,18,20,22,24,-1,26,28,30,32,34,36,38,40,-1,42,44,46,48,50,52,54,-1,56,-1,58,60,62,64,66,-1,68,70,72,74,76,78,80,82,84,86,88,90,92,94,96,98,-1,-1,-1,-1,-1,-1,-1,-1,-1,-1,-1,-1,-1,-1,-1,-1,-1,-1,-1,-1,-1,-1,-1,-1,-1,-1,-1,-1,-1,-1,-1,-1,-1,-1,-1,-1,-1,-1,-1,-1,-1,-1,-1,-1,-1],"split_conditions":[1E0,3.3465E2,2.4353E2,1.1E1,2.0467E2,1.4744E2,1E0,2.7263E2,1.198E3,1.1E1,4.4623E2,2.8906E2,3.743366E2,2.444E3,4.3553E2,1.5041E2,1.993E3,1.9209E2,1.543E3,3.4923E2,1.727E3,9.791674E1,6.9943E2,2.131E1,7E1,1.03E2,9.7E1,2.445E2,1.13E2,-1.00551605E1,1.03E2,-5.4670978E0,2.581E3,1.37E2,2.8718E2,2.1E1,1.77E3,2.5754215E1,1E0,3.2013E2,1.754E3,6.4E1,4.3E1,1.543E3,3.9E1,1.94E2,1.06E2,8.6E1,2.9106E2,2.4838E2,9.1E1,4.1E1,2.7E1,2.631E3,-7.628624E0,4.988913E1,1.7514933E1,-1.0616089E0,3.3839113E-1,5.0771637E0,-1.1529131E1,4.2596046E1,1.06119795E1,6.8951297E0,-1.1052368E1,2.2467451E1,3.4998542E-1,-1.9144377E0,1.5883304E1,-1.4922551E1,-7.7531624E0,2.602335E0,-6.6971574E0,2.9751127E0,3.4411423E1,-1.9845451E0,-8.942729E0,-1.7285559E1,3.364466E1,-1.4677417E1,5.641508E0,4.9168835E1,1.3939954E2,3.7482563E-2,3.6176487E1,2.6043909E0,4.061311E1,-1.3875079E1,-4.086599E0,-4.8465166E0,-1.3869777E1,-5.802414E0,8.091172E0,1.2935733E1,-1.4600011E1,4.160979E0,3.1086597E1,7.3608093E0,-4.828359E0],"split_indices":[5,3,2,0,7,7,4,2,1,0,3,3,0,1,2,2,1,3,1,3,1,0,3,7,6,6,6,2,0,0,6,0,1,0,3,6,1,0,4,2,1,6,0,1,0,2,0,6,3,2,0,0,0,1,0,0,0,0,0,0,0,0,0,0,0,0,0,0,0,0,0,0,0,0,0,0,0,0,0,0,0,0,0,0,0,0,0,0,0,0,0,0,0,0,0,0,0,0,0],"split_type":[0,0,0,0,0,0,0,0,0,0,0,0,0,0,0,0,0,0,0,0,0,0,0,0,0,0,0,0,0,0,0,0,0,0,0,0,0,0,0,0,0,0,0,0,0,0,0,0,0,0,0,0,0,0,0,0,0,0,0,0,0,0,0,0,0,0,0,0,0,0,0,0,0,0,0,0,0,0,0,0,0,0,0,0,0,0,0,0,0,0,0,0,0,0,0,0,0,0,0],"sum_hessian":[1.599E3,1.434E3,1.65E2,8.95E2,5.39E2,6.5E1,1E2,1.3E1,8.82E2,5.26E2,1.3E1,6.4E1,1E0,5.9E1,4.1E1,9E0,4E0,8E1,8.02E2,8E0,5.18E2,1E0,1.2E1,4.8E1,1.6E1,3.9E1,2E1,1.5E1,2.6E1,1E0,8E0,2E0,2E0,3.5E1,4.5E1,1.5E2,6.52E2,1E0,7E0,2E2,3.18E2,8E0,4E0,2.5E1,2.3E1,8E0,8E0,2.7E1,1.2E1,1.3E1,7E0,2E0,1.3E1,2.2E1,4E0,5E0,3E0,1E0,1E0,2.8E1,7E0,5E0,4E1,1.7E1,1.33E2,4.1E1,6.11E2,6E0,1E0,4E0,1.96E2,3.5E1,2.83E2,5E0,3E0,1E0,3E0,2E0,2.3E1,5E0,1.8E1,5E0,3E0,6E0,2E0,2.5E1,2E0,3E0,9E0,4E0,9E0,5E0,2E0,1E0,1E0,3E0,1E1,1.8E1,4E0],"tree_param":{"num_deleted":"0","num_feature":"8","num_nodes":"99","size_leaf_vector":"1"}},{"base_weights":[4.4229755E0,-1.0353901E1,1.9181154E2,1.1080247E1,-6.02636E1,4.1221982E2,5.8165913E1,1.6905243E2,4.421016E0,-1.892151E1,-6.2261864E1,2.63669E2,2.3545244E3,1.0615429E2,-1.4131842E0,3.8178067E2,9.06442E1,2.2710602E0,4.3094806E2,-3.3014347E1,8.133792E0,-7.9644165E1,-5.7617252E1,1.7476291E2,5.3069226E2,-2.4411066E0,3.5561978E2,2.9076498E2,5.9594296E1,-7.610562E1,2.4496244E1,2.3778036E2,6.8652145E1,4.0198325E2,5.6488823E1,7.373054E1,-7.71786E0,9.30209E1,7.358057E1,1.3310654E1,-4.5427513E1,3.6342655E1,-8.280083E1,-4.224637E1,-7.19503E1,2.2400562E2,1.85595E1,2.6357147E1,6.0751953E2,5.337561E0,3.6099884E1,-5.7198E0,1.7981345E2,-9.619843E-1,-8.321387E0,1.816876E1,1.0941087E1,-6.7041316E0,4.0136475E1,8.834122E0,5.1463367E1,2.0100985E0,3.7727905E1,-1.957563E1,1.0220001E1,6.961834E0,-1.5393133E0,2.008542E1,-3.5795376E0,-1.1043762E0,5.536416E0,-4.892036E0,3.482544E-1,5.8821383E0,-4.307396E-1,-3.028915E0,-8.502006E0,-5.4641705E0,4.1370463E0,-8.4448185E0,-6.497336E0,1.8342056E0,3.029669E1,1.02252245E1,-4.0328918E0,6.702441E1,1.1558631E1,6.986684E0,-3.650725E0,4.419632E0,3.0806456E1,-5.879677E0,2.7024333E0],"categories":[],"categories_nodes":[],"categories_segments":[],"categories_sizes":[],"default_left":[0,0,0,0,0,0,0,0,0,0,0,0,0,0,0,0,0,0,0,0,0,0,0,0,0,0,0,0,0,0,0,0,0,0,0,0,0,0,0,0,0,0,0,0,0,0,0,0,0,0,0,0,0,0,0,0,0,0,0,0,0,0,0,0,0,0,0,0,0,0,0,0,0,0,0,0,0,0,0,0,0,0,0,0,0,0,0,0,0,0,0,0,0],"id":10,"left_children":[1,3,5,7,9,11,13,15,17,19,21,23,25,27,29,31,33,35,37,39,-1,41,43,45,47,-1,-1,49,51,53,55,57,-1,59,61,63,65,-1,67,69,71,73,75,77,79,81,83,-1,85,-1,-1,87,89,-1,-1,-1,91,-1,-1,-1,-1,-1,-1,-1,-1,-1,-1,-1,-1,-1,-1,-1,-1,-1,-1,-1,-1,-1,-1,-1,-1,-1,-1,-1,-1,-1,-1,-1,-1,-1,-1,-1,-1],"loss_changes":[4.432414E6,1.5882092E6,3.422445E6,1.0922526E6,3.5666875E4,1.2074544E7,2.1172372E5,6.65939E5,9.1420156E5,3.3769992E4,2.9723E4,9.043345E5,8.66292E6,3.3508644E5,6.7662414E4,3.19469E5,3.1757738E5,7.100893E5,8.2365275E5,1.2105471E4,0E0,3.4862625E4,7.1646E4,2.4967462E5,4.5097E4,0E0,0E0,1.1411369E5,2.679967E5,3.4528672E3,5.341174E4,4.7568456E5,0E0,6.0532312E4,3.4260222E5,9.560085E5,5.192638E5,0E0,6.287235E4,5.732371E3,2.9037266E3,2.9946511E3,7.330375E3,1.7431275E5,9.6854375E3,4.0042938E5,4.848052E4,0E0,1.38523E5,0E0,0E0,5.60744E4,1.9510122E5,0E0,0E0,0E0,2.9629225E4,0E0,0E0,0E0,0E0,0E0,0E0,0E0,0E0,0E0,0E0,0E0,0E0,0E0,0E0,0E0,0E0,0E0,0E0,0E0,0E0,0E0,0E0,0E0,0E0,0E0,0E0,0E0,0E0,0E0,0E0,0E0,0E0,0E0,0E0,0E0,0E0],"parents":[2147483647,0,0,1,1,2,2,3,3,4,4,5,5,6,6,7,7,8,8,9,9,10,10,11,11,12,12,13,13,14,14,15,15,16,16,17,17,18,18,19,19,21,21,22,22,23,23,24,24,27,27,28,28,29,29,30,30,31,31,33,33,34,34,35,35,36,36,38,38,39,39,40,40,41,41,42,42,43,43,44,44,45,45,46,46,48,48,51,51,52,52,56,56],"right_children":[2,4,6,8,10,12,14,16,18,20,22,24,26,28,30,32,34,36,38,40,-1,42,44,46,48,-1,-1,50,52,54,56,58,-1,60,62,64,66,-1,68,70,72,74,76,78,80,82,84,-1,86,-1,-1,88,90,-1,-1,-1,92,-1,-1,-1,-1,-1,-1,-1,-1,-1,-1,-1,-1,-1,-1,-1,-1,-1,-1,-1,-1,-1,-1,-1,-1,-1,-1,-1,-1,-1,-1,-1,-1,-1,-1,-1,-1],"split_conditions":[1E0,3.8703E2,3.1137E2,1.4E1,1.4E1,1.4159E2,1.993E3,1.7272E2,1.92E2,6.211E1,1.525E3,2.9591E2,6.4E1,2.92E2,2.322E3,1.17E2,1.198E3,1.5235E2,6E0,0E0,8.133792E0,3.8703E2,1.971E3,9.1E1,3.1E1,-2.4411066E0,3.5561978E2,3.9E1,6.5963E2,1.3E1,2.444E3,1.572E2,6.8652145E1,1.3E1,2.826E3,1.311E3,1.198E3,9.30209E1,1.01E2,8.8E1,2.631E3,9.1E1,4.0255E2,1.962E3,4.9573E2,1.885E3,5.3E1,2.6357147E1,2.304E3,5.337561E0,3.6099884E1,3E1,1.571E3,-9.619843E-1,-8.321387E0,1.816876E1,2.494E3,-6.7041316E0,4.0136475E1,8.834122E0,5.1463367E1,2.0100985E0,3.7727905E1,-1.957563E1,1.0220001E1,6.961834E0,-1.5393133E0,2.008542E1,-3.5795376E0,-1.1043762E0,5.536416E0,-4.892036E0,3.482544E-1,5.8821383E0,-4.307396E-1,-3.028915E0,-8.502006E0,-5.4641705E0,4.1370463E0,-8.4448185E0,-6.497336E0,1.8342056E0,3.029669E1,1.02252245E1,-4.0328918E0,6.702441E1,1.1558631E1,6.986684E0,-3.650725E0,4.419632E0,3.0806456E1,-5.879677E0,2.7024333E0],"split_indices":[4,2,3,0,0,7,1,2,7,7,1,3,0,2,1,6,1,3,6,7,0,3,1,6,6,0,0,0,3,0,1,3,0,0,1,1,1,0,0,6,1,0,3,1,3,1,0,0,1,0,0,0,1,0,0,0,1,0,0,0,0,0,0,0,0,0,0,0,0,0,0,0,0,0,0,0,0,0,0,0,0,0,0,0,0,0,0,0,0,0,0,0,0],"split_type":[0,0,0,0,0,0,0,0,0,0,0,0,0,0,0,0,0,0,0,0,0,0,0,0,0,0,0,0,0,0,0,0,0,0,0,0,0,0,0,0,0,0,0,0,0,0,0,0,0,0,0,0,0,0,0,0,0,0,0,0,0,0,0,0,0,0,0,0,0,0,0,0,0,0,0,0,0,0,0,0,0,0,0,0,0,0,0,0,0,0,0,0,0],"sum_hessian":[1.599E3,1.483E3,1.16E2,1.038E3,4.45E2,4.3E1,7.3E1,4.1E1,9.97E2,2.1E1,4.24E2,4.1E1,2E0,4E1,3.3E1,1E1,3.1E1,9.93E2,4E0,1.9E1,2E0,8.6E1,3.38E2,3.2E1,9E0,1E0,1E0,7E0,3.3E1,8E0,2.5E1,8E0,2E0,2E0,2.9E1,1.21E2,8.72E2,1E0,3E0,4E0,1.5E1,2E0,8.4E1,1.65E2,1.73E2,2.4E1,8E0,3E0,6E0,2E0,5E0,2.2E1,1.1E1,1E0,7E0,1E0,2.4E1,3E0,5E0,1E0,1E0,2.7E1,2E0,1.1E1,1.1E2,7.8E1,7.94E2,1E0,2E0,3E0,1E0,1.4E1,1E0,1E0,1E0,4E0,8E1,1.44E2,2.1E1,5.8E1,1.15E2,7E0,1.7E1,3E0,5E0,5E0,1E0,6E0,1.6E1,6E0,5E0,4E0,2E1],"tree_param":{"num_deleted":"0","num_feature":"8","num_nodes":"93","size_leaf_vector":"1"}},{"base_weights":[4.5278854E0,-1.2275161E1,1.4975586E2,7.84369E0,-4.563482E1,3.3071915E2,3.0019892E1,1.3032184E2,2.7135425E0,-5.20167E1,1.978571E2,2.3185672E2,3.378388E2,2.7983412E1,1.9517067E1,4.1809595E2,9.149098E1,2.1524921E1,-2.5213184E1,6.965199E1,-5.4026337E1,8.836986E1,7.712325E1,1.3314508E2,5.0273993E2,-3.2522465E1,6.2521915E1,8.392417E0,5.015118E1,-5.0919365E1,1.25023636E2,-1.5863407E0,3.036415E2,-3.797073E1,8.959611E1,2.2580109E1,2.190822E1,-5.861726E1,-2.8845232E1,1.5161255E2,-7.2382126E1,6.398414E1,9.796989E1,1.3323935E2,3.032932E2,1.0508074E0,-1.3638992E2,2.027582E2,2.193221E1,2.0313473E0,-1.0942237E1,2.7252714E1,4.8573365E0,1.0402871E0,-2.0179182E1,2.2762321E1,7.7504135E1,-1.3247945E1,-2.8947365E0,2.828745E1,3.9853177E0,-5.759916E0,8.113248E0,-1.3308098E1,-5.492301E0,5.480314E0,-5.8540626E0,2.6839502E0,3.0086897E1,-2.0204399E0,-8.037546E0,-1.0836341E1,1.4307322E1,5.199537E1,1.0108028E1,4.5628257E0,-7.789782E0,-2.0421635E1,-6.845821E0,9.382918E0,3.9715893E1,6.362573E0,-1.0632155E0],"categories":[],"categories_nodes":[],"categories_segments":[],"categories_sizes":[],"default_left":[0,0,0,0,0,0,0,0,0,0,0,0,0,0,0,0,0,0,0,0,0,0,0,0,0,0,0,0,0,0,0,0,0,0,0,0,0,0,0,0,0,0,0,0,0,0,0,0,0,0,0,0,0,0,0,0,0,0,0,0,0,0,0,0,0,0,0,0,0,0,0,0,0,0,0,0,0,0,0,0,0,0,0],"id":11,"left_children":[1,3,5,7,9,11,13,15,17,19,21,23,-1,-1,25,27,29,31,33,35,37,-1,39,41,43,45,47,-1,-1,49,51,53,55,57,59,-1,61,63,65,67,69,-1,71,-1,73,75,77,79,81,-1,-1,-1,-1,-1,-1,-1,-1,-1,-1,-1,-1,-1,-1,-1,-1,-1,-1,-1,-1,-1,-1,-1,-1,-1,-1,-1,-1,-1,-1,-1,-1,-1,-1],"loss_changes":[3.906274E6,9.6346956E5,3.586929E6,5.62631E5,8.4941775E5,1.910249E7,2.5953769E5,3.640305E5,4.528607E5,1.3261988E5,1.0911062E6,1.6711192E6,0E0,0E0,2.2135267E5,6.941194E4,1.6395419E5,3.358318E6,5.116477E5,6.2149414E4,5.8307875E4,0E0,1.5574919E5,8.106486E5,2.408912E6,1.5706597E5,3.029291E5,0E0,0E0,3.139409E4,2.9123284E5,1.1470452E6,1.2211482E6,2.6308738E5,3.2522475E5,0E0,4.2343285E4,1.13179125E5,2.0689384E5,1.5953344E5,4.6143164E2,0E0,4.529009E5,0E0,6.04616E5,1.2673084E5,3.6702938E4,2.1684544E5,5.905858E4,0E0,0E0,0E0,0E0,0E0,0E0,0E0,0E0,0E0,0E0,0E0,0E0,0E0,0E0,0E0,0E0,0E0,0E0,0E0,0E0,0E0,0E0,0E0,0E0,0E0,0E0,0E0,0E0,0E0,0E0,0E0,0E0,0E0,0E0],"parents":[2147483647,0,0,1,1,2,2,3,3,4,4,5,5,6,6,7,7,8,8,9,9,10,10,11,11,14,14,15,15,16,16,17,17,18,18,19,19,20,20,22,22,23,23,24,24,25,25,26,26,29,29,30,30,31,31,32,32,33,33,34,34,36,36,37,37,38,38,39,39,40,40,42,42,44,44,45,45,46,46,47,47,48,48],"right_children":[2,4,6,8,10,12,14,16,18,20,22,24,-1,-1,26,28,30,32,34,36,38,-1,40,42,44,46,48,-1,-1,50,52,54,56,58,60,-1,62,64,66,68,70,-1,72,-1,74,76,78,80,82,-1,-1,-1,-1,-1,-1,-1,-1,-1,-1,-1,-1,-1,-1,-1,-1,-1,-1,-1,-1,-1,-1,-1,-1,-1,-1,-1,-1,-1,-1,-1,-1,-1,-1],"split_conditions":[1E0,3.3465E2,2.4353E2,1.4E1,2.0467E2,1.4744E2,1.198E3,1.198E3,2.304E3,1.1E1,4.4623E2,2.8906E2,3.378388E2,2.7983412E1,4.95E1,1.8333E2,1.445E3,2.29E3,2.826E3,3.4923E2,2.494E3,8.836986E1,6.9943E2,1.4E1,4.85E1,1.01E2,3.8E1,8.392417E0,5.015118E1,1.9406E2,1.1E1,2.104E3,3.11E1,1.1937E2,2.4838E2,2.2580109E1,4.3559E2,3.2013E2,5.8103E2,6.4E1,4.3E1,6.398414E1,1.878E3,1.3323935E2,7E1,2.492E3,2.8427E2,1.6484E2,1.993E3,2.0313473E0,-1.0942237E1,2.7252714E1,4.8573365E0,1.0402871E0,-2.0179182E1,2.2762321E1,7.7504135E1,-1.3247945E1,-2.8947365E0,2.828745E1,3.9853177E0,-5.759916E0,8.113248E0,-1.3308098E1,-5.492301E0,5.480314E0,-5.8540626E0,2.6839502E0,3.0086897E1,-2.0204399E0,-8.037546E0,-1.0836341E1,1.4307322E1,5.199537E1,1.0108028E1,4.5628257E0,-7.789782E0,-2.0421635E1,-6.845821E0,9.382918E0,3.9715893E1,6.362573E0,-1.0632155E0],"split_indices":[5,3,2,0,7,7,1,1,1,0,3,3,0,0,7,3,1,1,1,3,1,0,3,0,7,0,6,0,0,3,0,1,7,2,2,0,2,2,3,6,0,0,1,0,6,1,2,7,1,0,0,0,0,0,0,0,0,0,0,0,0,0,0,0,0,0,0,0,0,0,0,0,0,0,0,0,0,0,0,0,0,0,0],"split_type":[0,0,0,0,0,0,0,0,0,0,0,0,0,0,0,0,0,0,0,0,0,0,0,0,0,0,0,0,0,0,0,0,0,0,0,0,0,0,0,0,0,0,0,0,0,0,0,0,0,0,0,0,0,0,0,0,0,0,0,0,0,0,0,0,0,0,0,0,0,0,0,0,0,0,0,0,0,0,0,0,0,0,0],"sum_hessian":[1.599E3,1.434E3,1.65E2,8.95E2,5.39E2,6.5E1,1E2,3.5E1,8.6E2,5.26E2,1.3E1,6.4E1,1E0,3E0,9.7E1,3E0,3.2E1,5.14E2,3.46E2,8E0,5.18E2,1E0,1.2E1,4.8E1,1.6E1,4.4E1,5.3E1,1E0,2E0,6E0,2.6E1,4.76E2,3.8E1,3.12E2,3.4E1,1E0,7E0,4.37E2,8.1E1,8E0,4E0,2E0,4.6E1,2E0,1.4E1,3.4E1,1E1,1.1E1,4.2E1,3E0,3E0,8E0,1.8E1,4.5E2,2.6E1,3.4E1,4E0,2.6E1,2.86E2,6E0,2.8E1,3E0,4E0,1.9E1,4.18E2,2.1E1,6E1,5E0,3E0,1E0,3E0,8E0,3.8E1,6E0,8E0,2.2E1,1.2E1,4E0,6E0,8E0,3E0,1.8E1,2.4E1],"tree_param":{"num_deleted":"0","num_feature":"8","num_nodes":"83","size_leaf_vector":"1"}},{"base_weights":[4.667825E0,-8.214916E0,1.6802954E2,9.447993E0,-4.934395E1,3.600195E2,5.1602676E1,1.4479738E2,3.74246E0,-4.715695E1,-8.153636E0,2.2546054E2,2.1238386E3,4.003323E1,2.440597E2,4.251454E2,9.5422104E1,1.7809242E0,3.929473E2,-5.0506733E1,2.2364025E1,1.4901118E2,4.5519736E2,-2.3710656E0,3.2094687E2,7.069668E1,2.5814838E0,3.3672905E1,-1.6974179E0,-9.318763E0,5.474495E2,3.9092224E2,5.785085E1,6.607221E1,-7.205694E0,8.395136E1,7.142731E1,-6.6030354E0,-5.231415E1,1.0510532E2,-1.2223429E1,-3.333215E1,1.8276294E2,2.2947584E1,5.191529E2,2.008678E2,4.09423E1,-6.635448E1,2.3693262E1,4.505985E0,6.61782E1,7.972795E0,4.680777E1,3.0011883E0,3.355162E1,-2.5906864E-1,1.7569578E1,-9.448388E0,-5.3272206E-2,1.9029135E1,-3.1624486E0,-2.0035198E0,6.275879E0,-6.2597537E0,-4.518758E0,-3.2567918E0,1.3915355E1,1.2757918E0,-5.1821766E0,1.4397409E1,-9.7588215E0,3.056938E1,5.5843263E0,5.7379066E1,9.566324E0,4.734963E0,2.5280516E1,-1.7152407E0,1.2101028E1,-2.4848023E-1,-7.512375E0,1.7534937E1,1.0613043E0],"categories":[],"categories_nodes":[],"categories_segments":[],"categories_sizes":[],"default_left":[0,0,0,0,0,0,0,0,0,0,0,0,0,0,0,0,0,0,0,0,0,0,0,0,0,0,0,0,0,0,0,0,0,0,0,0,0,0,0,0,0,0,0,0,0,0,0,0,0,0,0,0,0,0,0,0,0,0,0,0,0,0,0,0,0,0,0,0,0,0,0,0,0,0,0,0,0,0,0,0,0,0,0],"id":12,"left_children":[1,3,5,7,9,11,13,15,17,19,-1,21,23,25,27,29,31,33,35,37,39,41,43,-1,-1,45,47,-1,-1,-1,49,51,53,55,57,-1,59,61,63,65,67,69,71,-1,73,75,77,79,81,-1,-1,-1,-1,-1,-1,-1,-1,-1,-1,-1,-1,-1,-1,-1,-1,-1,-1,-1,-1,-1,-1,-1,-1,-1,-1,-1,-1,-1,-1,-1,-1,-1,-1],"loss_changes":[3.3686552E6,1.0785305E6,2.5966985E6,8.0181594E5,2.75555E4,9.964016E6,1.5499948E5,5.408068E5,7.6121256E5,9.893919E4,0E0,6.6982625E5,7.070429E6,8.1353875E4,1.0247506E5,4.31381E5,3.8817034E5,5.7477075E5,6.579359E5,3.1474875E4,5.852096E4,2.0918731E5,2.5228375E4,0E0,0E0,1.4282927E5,4.959906E4,0E0,0E0,0E0,2.5737738E5,5.8722438E4,2.5274766E5,9.18758E5,5.0838912E5,0E0,5.5014477E4,1.7095934E4,2.538625E4,3.2657117E4,1.5499436E4,8.240818E4,4.1979475E5,0E0,1.07079125E5,4.3843062E4,1.5557597E5,4.294051E3,4.9715082E4,0E0,0E0,0E0,0E0,0E0,0E0,0E0,0E0,0E0,0E0,0E0,0E0,0E0,0E0,0E0,0E0,0E0,0E0,0E0,0E0,0E0,0E0,0E0,0E0,0E0,0E0,0E0,0E0,0E0,0E0,0E0,0E0,0E0,0E0],"parents":[2147483647,0,0,1,1,2,2,3,3,4,4,5,5,6,6,7,7,8,8,9,9,11,11,12,12,13,13,14,14,15,15,16,16,17,17,18,18,19,19,20,20,21,21,22,22,25,25,26,26,30,30,31,31,32,32,33,33,34,34,36,36,37,37,38,38,39,39,40,40,41,41,42,42,44,44,45,45,46,46,47,47,48,48],"right_children":[2,4,6,8,10,12,14,16,18,20,-1,22,24,26,28,30,32,34,36,38,40,42,44,-1,-1,46,48,-1,-1,-1,50,52,54,56,58,-1,60,62,64,66,68,70,72,-1,74,76,78,80,82,-1,-1,-1,-1,-1,-1,-1,-1,-1,-1,-1,-1,-1,-1,-1,-1,-1,-1,-1,-1,-1,-1,-1,-1,-1,-1,-1,-1,-1,-1,-1,-1,-1,-1],"split_conditions":[1E0,3.8703E2,3.1137E2,1.4E1,6.8873E2,1.4159E2,1.62E2,1.5326E2,1.92E2,6.7803E2,-8.153636E0,2.9591E2,6.4E1,1.993E3,1.971E3,1.311E3,1.198E3,1.5235E2,6E0,1.4E1,5.2E1,3E1,3.1E1,-2.3710656E0,3.2094687E2,2.92E2,2.322E3,3.3672905E1,-1.6974179E0,-9.318763E0,1.2325E2,1.8333E2,2.826E3,1.3974E2,1.5717E2,8.395136E1,1.01E2,6.211E1,1.727E3,4.3E1,1.971E3,9.509E1,7.7E1,2.2947584E1,2.304E3,3.9E1,1.571E3,1.3E1,2.444E3,4.505985E0,6.61782E1,7.972795E0,4.680777E1,3.0011883E0,3.355162E1,-2.5906864E-1,1.7569578E1,-9.448388E0,-5.3272206E-2,1.9029135E1,-3.1624486E0,-2.0035198E0,6.275879E0,-6.2597537E0,-4.518758E0,-3.2567918E0,1.3915355E1,1.2757918E0,-5.1821766E0,1.4397409E1,-9.7588215E0,3.056938E1,5.5843263E0,5.7379066E1,9.566324E0,4.734963E0,2.5280516E1,-1.7152407E0,1.2101028E1,-2.4848023E-1,-7.512375E0,1.7534937E1,1.0613043E0],"split_indices":[4,2,3,0,3,7,0,2,7,3,0,3,0,1,1,1,1,3,6,0,6,6,6,0,0,2,1,0,0,0,2,3,1,2,2,0,0,7,1,6,1,2,6,0,1,0,1,0,1,0,0,0,0,0,0,0,0,0,0,0,0,0,0,0,0,0,0,0,0,0,0,0,0,0,0,0,0,0,0,0,0,0,0],"split_type":[0,0,0,0,0,0,0,0,0,0,0,0,0,0,0,0,0,0,0,0,0,0,0,0,0,0,0,0,0,0,0,0,0,0,0,0,0,0,0,0,0,0,0,0,0,0,0,0,0,0,0,0,0,0,0,0,0,0,0,0,0,0,0,0,0,0,0,0,0,0,0,0,0,0,0,0,0,0,0,0,0,0,0],"sum_hessian":[1.599E3,1.483E3,1.16E2,1.038E3,4.45E2,4.3E1,7.3E1,4.1E1,9.97E2,4.19E2,2.6E1,4.1E1,2E0,7E1,3E0,5E0,3.6E1,9.93E2,4E0,4E2,1.9E1,3.2E1,9E0,1E0,1E0,3.8E1,3.2E1,2E0,1E0,1E0,4E0,3E0,3.3E1,1.21E2,8.72E2,1E0,3E0,1.6E1,3.84E2,5E0,1.4E1,5E0,2.7E1,3E0,6E0,6E0,3.2E1,7E0,2.5E1,1E0,3E0,1E0,2E0,3.1E1,2E0,7.5E1,4.6E1,6.1E1,8.11E2,1E0,2E0,1.4E1,2E0,1.54E2,2.3E2,1E0,4E0,9E0,5E0,1E0,4E0,1.3E1,1.4E1,5E0,1E0,2E0,4E0,1.9E1,1.3E1,1E0,6E0,1E0,2.4E1],"tree_param":{"num_deleted":"0","num_feature":"8","num_nodes":"83","size_leaf_vector":"1"}},{"base_weights":[4.6916E0,-1.0028439E1,1.3191187E2,6.473885E0,-3.7391502E1,2.9121753E2,2.6505074E1,7.772374E1,-7.027555E-1,-4.364202E1,1.5747108E2,2.0188257E2,3.048995E2,-5.677717E1,5.179057E1,2.954268E2,5.6649467E1,-7.733057E1,1.7267008E1,6.116426E1,-4.538546E1,7.975379E1,6.76208E1,1.128447E2,4.466457E2,6.597657E1,-1.0136045E2,1.7192174E2,7.401863E0,1.4633942E-1,3.441768E2,3.1167473E1,2.6935046E2,6.2284954E1,-9.498092E1,2.0166228E2,4.7478647E0,1.9773523E1,1.9375986E1,-4.958739E1,-2.254124E1,-1.5662354E1,1.5286174E2,2.2004283E2,-7.988466E0,1.2333953E2,2.5951938E2,2.3195871E1,-4.680803E1,-1.8707999E2,-6.3506294E1,2.66449E2,-1.4991175E1,-3.2109783E1,5.0882545E1,7.574155E0,3.8271553E1,7.8239784E0,-4.969211E0,3.1676054E1,-3.1259995E0,3.062927E1,-5.5125155E0,-1.8471777E1,-6.9411325E0,1.3895322E1,3.1715515E1,7.845966E0,-7.592544E-1,-1.7081985E0,1.372909E1,-1.2088898E1,-4.6219726E0,5.002874E0,-4.8344493E0,6.1257305E0,-4.6390443E0,3.3368115E0,3.4089504E1,-8.7046585E0,2.7983393E1,-1.3256678E1,3.1772497E0,4.2724743E1,5.935144E0,-8.838628E0,1.0372895E0,-2.4134996E0,-2.2178251E1,-9.918487E0,2.0552094E0,2.935029E1,-4.262592E0,-8.65298E0,7.8179903E0,-2.1955712E0,-8.051981E0,2.071839E1,3.0890756E0],"categories":[],"categories_nodes":[],"categories_segments":[],"categories_sizes":[],"default_left":[0,0,0,0,0,0,0,0,0,0,0,0,0,0,0,0,0,0,0,0,0,0,0,0,0,0,0,0,0,0,0,0,0,0,0,0,0,0,0,0,0,0,0,0,0,0,0,0,0,0,0,0,0,0,0,0,0,0,0,0,0,0,0,0,0,0,0,0,0,0,0,0,0,0,0,0,0,0,0,0,0,0,0,0,0,0,0,0,0,0,0,0,0,0,0,0,0,0,0],"id":13,"left_children":[1,3,5,7,9,11,13,15,17,19,21,23,-1,25,27,29,31,33,35,37,39,-1,41,43,45,47,49,51,53,-1,55,57,59,61,63,65,67,-1,69,71,73,75,77,79,81,-1,83,-1,85,87,89,91,93,95,97,-1,-1,-1,-1,-1,-1,-1,-1,-1,-1,-1,-1,-1,-1,-1,-1,-1,-1,-1,-1,-1,-1,-1,-1,-1,-1,-1,-1,-1,-1,-1,-1,-1,-1,-1,-1,-1,-1,-1,-1,-1,-1,-1,-1],"loss_changes":[2.9976222E6,6.4822225E5,2.7797362E6,4.5821044E5,6.645884E5,1.5644616E7,2.1562966E5,3.594748E5,1.1235769E6,9.852294E4,9.2374306E5,1.3661555E6,0E0,1.3803377E5,4.146599E5,9.9811375E4,4.035285E5,3.8787675E5,1.5249415E6,4.7532273E4,4.8413125E4,0E0,1.15980305E5,6.364592E5,2.182676E6,1.4189912E5,4.652636E4,3.7503006E5,1.0127744E5,0E0,3.30835E4,2.6651897E5,1.23917625E5,5.32566E5,3.0382425E5,2.6011325E5,5.6456856E5,0E0,3.6736707E4,9.8864875E4,1.55967E5,2.4114102E4,1.6837527E5,5.0175E5,1.2309246E5,0E0,4.7824894E5,0E0,1.2804233E4,2.2920281E4,4.4025613E4,1.2957431E5,6.008754E4,1.3470451E4,8.1092766E4,0E0,0E0,0E0,0E0,0E0,0E0,0E0,0E0,0E0,0E0,0E0,0E0,0E0,0E0,0E0,0E0,0E0,0E0,0E0,0E0,0E0,0E0,0E0,0E0,0E0,0E0,0E0,0E0,0E0,0E0,0E0,0E0,0E0,0E0,0E0,0E0,0E0,0E0,0E0,0E0,0E0,0E0,0E0,0E0],"parents":[2147483647,0,0,1,1,2,2,3,3,4,4,5,5,6,6,7,7,8,8,9,9,10,10,11,11,13,13,14,14,15,15,16,16,17,17,18,18,19,19,20,20,22,22,23,23,24,24,25,25,26,26,27,27,28,28,30,30,31,31,32,32,33,33,34,34,35,35,36,36,38,38,39,39,40,40,41,41,42,42,43,43,44,44,46,46,48,48,49,49,50,50,51,51,52,52,53,53,54,54],"right_children":[2,4,6,8,10,12,14,16,18,20,22,24,-1,26,28,30,32,34,36,38,40,-1,42,44,46,48,50,52,54,-1,56,58,60,62,64,66,68,-1,70,72,74,76,78,80,82,-1,84,-1,86,88,90,92,94,96,98,-1,-1,-1,-1,-1,-1,-1,-1,-1,-1,-1,-1,-1,-1,-1,-1,-1,-1,-1,-1,-1,-1,-1,-1,-1,-1,-1,-1,-1,-1,-1,-1,-1,-1,-1,-1,-1,-1,-1,-1,-1,-1,-1,-1],"split_conditions":[1E0,3.3465E2,2.4353E2,1.198E3,1.92E2,1.4744E2,2.9591E2,2.4E1,1.543E3,1.1E1,4.4623E2,2.8906E2,3.048995E2,2.823E2,3.1913E2,1.6105E2,1.28E2,2.1E1,1.77E3,3.4923E2,2.494E3,7.975379E1,9.3E1,2.131E1,4.85E1,2.492E3,1.543E3,2.444E3,9.9E1,1.4633942E-1,1.8333E2,7.7E1,2.8815E2,1.6396E2,1.6593E2,9.8E1,1.5038E2,1.9773523E1,1E0,3.2013E2,5.8103E2,5.3E1,8.6E1,1.2028E2,3.9E1,1.2333953E2,8.6E1,2.3195871E1,2.64E3,2.9E1,9.7E1,9.6E1,1.26E2,2.444E3,3.8E1,7.574155E0,3.8271553E1,7.8239784E0,-4.969211E0,3.1676054E1,-3.1259995E0,3.062927E1,-5.5125155E0,-1.8471777E1,-6.9411325E0,1.3895322E1,3.1715515E1,7.845966E0,-7.592544E-1,-1.7081985E0,1.372909E1,-1.2088898E1,-4.6219726E0,5.002874E0,-4.8344493E0,6.1257305E0,-4.6390443E0,3.3368115E0,3.4089504E1,-8.7046585E0,2.7983393E1,-1.3256678E1,3.1772497E0,4.2724743E1,5.935144E0,-8.838628E0,1.0372895E0,-2.4134996E0,-2.2178251E1,-9.918487E0,2.0552094E0,2.935029E1,-4.262592E0,-8.65298E0,7.8179903E0,-2.1955712E0,-8.051981E0,2.071839E1,3.0890756E0],"split_indices":[5,3,2,1,7,7,3,0,1,0,3,3,0,3,2,2,6,6,1,3,1,0,0,7,7,1,1,1,7,0,3,6,2,3,3,6,3,0,4,2,3,6,6,2,0,0,6,0,1,0,6,6,0,1,6,0,0,0,0,0,0,0,0,0,0,0,0,0,0,0,0,0,0,0,0,0,0,0,0,0,0,0,0,0,0,0,0,0,0,0,0,0,0,0,0,0,0,0,0],"split_type":[0,0,0,0,0,0,0,0,0,0,0,0,0,0,0,0,0,0,0,0,0,0,0,0,0,0,0,0,0,0,0,0,0,0,0,0,0,0,0,0,0,0,0,0,0,0,0,0,0,0,0,0,0,0,0,0,0,0,0,0,0,0,0,0,0,0,0,0,0,0,0,0,0,0,0,0,0,0,0,0,0,0,0,0,0,0,0,0,0,0,0,0,0,0,0,0,0,0,0],"sum_hessian":[1.599E3,1.434E3,1.65E2,8.95E2,5.39E2,6.5E1,1E2,8.1E1,8.14E2,5.23E2,1.6E1,6.4E1,1E0,2.3E1,7.7E1,6E0,7.5E1,1.54E2,6.6E2,8E0,5.15E2,1E0,1.5E1,4.8E1,1.6E1,6E0,1.7E1,2E1,5.7E1,1E0,5E0,6.8E1,7E0,1.7E1,1.37E2,4.1E1,6.19E2,1E0,7E0,4.34E2,8.1E1,8E0,7E0,2.5E1,2.3E1,2E0,1.4E1,2E0,4E0,4E0,1.3E1,1.3E1,7E0,3E1,2.7E1,1E0,4E0,4.3E1,2.5E1,6E0,1E0,5E0,1.2E1,2.9E1,1.08E2,2.8E1,1.3E1,8.8E1,5.31E2,6E0,1E0,1.8E1,4.16E2,2.1E1,6E1,2E0,6E0,5E0,2E0,4E0,2.1E1,5E0,1.8E1,7E0,7E0,2E0,2E0,1E0,3E0,9E0,4E0,1.2E1,1E0,4E0,3E0,2.6E1,4E0,2E0,2.5E1],"tree_param":{"num_deleted":"0","num_feature":"8","num_nodes":"99","size_leaf_vector":"1"}},{"base_weights":[4.704043E0,-6.533296E0,1.4719556E2,1.1154425E1,-3.48346E1,3.1617056E2,4.4734806E1,3.7212856E1,-2.743381E1,-5.0045265E1,-2.5507803E1,1.9420291E2,1.9183273E3,3.4523045E1,2.1480988E2,1.7525085E1,2.7928113E2,-3.6687107E1,1.3587056E2,-1.0048862E2,-4.6848362E1,5.7753895E1,-3.5933544E1,1.2515987E2,4.026247E2,-1.9054558E0,2.8965454E2,1.5991715E1,8.819909E1,2.9313385E1,-1.008102E0,2.94951E1,-1.803781E1,1.7557039E2,4.66754E2,-4.712528E1,3.332007E1,2.8290228E2,6.799983E1,-1.7721062E0,-1.0640193E1,-7.8871045E0,-4.9445286E1,7.803626E1,-3.3130104E1,-8.840737E1,-2.9524942E1,5.0933746E1,1.9202364E2,2.0530722E1,4.578597E2,6.481066E1,-1.236173E1,1.5401701E2,-3.7231518E1,-2.6733983E-1,1.4959607E1,2.1382E1,-1.0738219E1,8.409678E1,2.329717E1,-3.927963E0,-1.0652659E1,9.142446E0,-1.0602028E1,3.227499E1,4.183208E0,2.370324E1,2.3761563E0,3.397448E0,-3.4918485E0,-5.37475E0,-2.6254604E0,5.750774E0,2.1249113E1,-6.797226E0,1.3696381E-1,-7.277023E-1,-9.064535E0,4.920676E0,-3.6323812E0,1.2996329E1,-1.738326E0,4.0379387E1,7.013656E0,5.037498E1,9.125971E0,3.2581916E-1,1.1487557E1,1.3042635E1,-2.0397449E0,8.524463E0,3.3191933E1,5.028341E-1,-5.514113E0],"categories":[],"categories_nodes":[],"categories_segments":[],"categories_sizes":[],"default_left":[0,0,0,0,0,0,0,0,0,0,0,0,0,0,0,0,0,0,0,0,0,0,0,0,0,0,0,0,0,0,0,0,0,0,0,0,0,0,0,0,0,0,0,0,0,0,0,0,0,0,0,0,0,0,0,0,0,0,0,0,0,0,0,0,0,0,0,0,0,0,0,0,0,0,0,0,0,0,0,0,0,0,0,0,0,0,0,0,0,0,0,0,0,0,0],"id":14,"left_children":[1,3,5,7,9,11,13,15,17,19,21,23,25,27,29,31,33,35,37,39,41,43,45,47,49,-1,-1,51,53,-1,-1,55,-1,57,59,61,63,65,67,-1,-1,69,71,73,75,77,79,81,83,-1,85,87,89,91,93,-1,-1,-1,-1,-1,-1,-1,-1,-1,-1,-1,-1,-1,-1,-1,-1,-1,-1,-1,-1,-1,-1,-1,-1,-1,-1,-1,-1,-1,-1,-1,-1,-1,-1,-1,-1,-1,-1,-1,-1],"loss_changes":[2.5629225E6,7.432575E5,2.0115128E6,9.200926E5,7.9729375E4,8.22555E6,1.211048E5,2.5972242E6,5.62582E5,3.0125E4,3.1110644E5,5.539905E5,5.740738E6,6.921242E4,7.341247E4,1.2039856E6,7.1521275E5,2.5733169E5,1.8034569E5,3.9876172E3,2.035175E4,7.631906E4,1.0399175E5,1.5399978E5,1.4986625E4,0E0,0E0,7.554717E4,1.543348E5,0E0,0E0,1.8471374E6,0E0,3.259995E5,1.028862E6,1.3795844E5,3.82122E5,4.4135188E4,1.06533375E5,0E0,0E0,1.7028406E4,1.7745E4,7.886541E4,9.70946E3,5.5137188E3,1.5380881E5,9.404325E4,4.1048425E5,0E0,7.1790875E4,6.1258086E4,4.2819527E4,1.1852284E5,5.5752715E3,0E0,0E0,0E0,0E0,0E0,0E0,0E0,0E0,0E0,0E0,0E0,0E0,0E0,0E0,0E0,0E0,0E0,0E0,0E0,0E0,0E0,0E0,0E0,0E0,0E0,0E0,0E0,0E0,0E0,0E0,0E0,0E0,0E0,0E0,0E0,0E0,0E0,0E0,0E0,0E0],"parents":[2147483647,0,0,1,1,2,2,3,3,4,4,5,5,6,6,7,7,8,8,9,9,10,10,11,11,12,12,13,13,14,14,15,15,16,16,17,17,18,18,19,19,20,20,21,21,22,22,23,23,24,24,27,27,28,28,31,31,33,33,34,34,35,35,36,36,37,37,38,38,41,41,42,42,43,43,44,44,45,45,46,46,47,47,48,48,50,50,51,51,52,52,53,53,54,54],"right_children":[2,4,6,8,10,12,14,16,18,20,22,24,26,28,30,32,34,36,38,40,42,44,46,48,50,-1,-1,52,54,-1,-1,56,-1,58,60,62,64,66,68,-1,-1,70,72,74,76,78,80,82,84,-1,86,88,90,92,94,-1,-1,-1,-1,-1,-1,-1,-1,-1,-1,-1,-1,-1,-1,-1,-1,-1,-1,-1,-1,-1,-1,-1,-1,-1,-1,-1,-1,-1,-1,-1,-1,-1,-1,-1,-1,-1,-1,-1,-1],"split_conditions":[1E0,3.2207E2,3.1137E2,2.304E3,1.727E3,1.4159E2,1.62E2,2.29E3,2.826E3,3.2689E2,1.77E3,2.9591E2,6.4E1,6.7803E2,1.971E3,2.104E3,8.9E1,2.9882E2,2.4838E2,4.3E1,1.4E1,1.37E2,1.962E3,2.4353E2,3.1E1,-1.9054558E0,2.8965454E2,3.2501E2,6.9943E2,2.9313385E1,-1.008102E0,1.885E3,-1.803781E1,3.0658E2,5.3E1,2.76E3,1.2E2,3.2016E2,2.4E1,-1.7721062E0,-1.0640193E1,9.5E1,1.26E2,1.754E3,1.52E2,1.1E1,1.971E3,7.5E1,2.522E2,2.0530722E1,2.304E3,1E0,1.1E1,1E2,1.571E3,-2.6733983E-1,1.4959607E1,2.1382E1,-1.0738219E1,8.409678E1,2.329717E1,-3.927963E0,-1.0652659E1,9.142446E0,-1.0602028E1,3.227499E1,4.183208E0,2.370324E1,2.3761563E0,3.397448E0,-3.4918485E0,-5.37475E0,-2.6254604E0,5.750774E0,2.1249113E1,-6.797226E0,1.3696381E-1,-7.277023E-1,-9.064535E0,4.920676E0,-3.6323812E0,1.2996329E1,-1.738326E0,4.0379387E1,7.013656E0,5.037498E1,9.125971E0,3.2581916E-1,1.1487557E1,1.3042635E1,-2.0397449E0,8.524463E0,3.3191933E1,5.028341E-1,-5.514113E0],"split_indices":[4,2,3,1,1,7,0,1,1,3,1,3,0,3,1,1,6,2,2,0,0,0,1,3,6,0,0,2,3,0,0,1,0,2,0,1,6,3,6,0,0,6,6,1,0,0,1,6,3,0,1,5,0,6,1,0,0,0,0,0,0,0,0,0,0,0,0,0,0,0,0,0,0,0,0,0,0,0,0,0,0,0,0,0,0,0,0,0,0,0,0,0,0,0,0],"split_type":[0,0,0,0,0,0,0,0,0,0,0,0,0,0,0,0,0,0,0,0,0,0,0,0,0,0,0,0,0,0,0,0,0,0,0,0,0,0,0,0,0,0,0,0,0,0,0,0,0,0,0,0,0,0,0,0,0,0,0,0,0,0,0,0,0,0,0,0,0,0,0,0,0,0,0,0,0,0,0,0,0,0,0,0,0,0,0,0,0,0,0,0,0,0,0],"sum_hessian":[1.599E3,1.483E3,1.16E2,9.13E2,5.7E2,4.3E1,7.3E1,5.45E2,3.68E2,2.15E2,3.55E2,4.1E1,2E0,7E1,3E0,5.05E2,4E1,3.49E2,1.9E1,1.1E1,2.04E2,3.9E1,3.16E2,3.2E1,9E0,1E0,1E0,5.3E1,1.7E1,2E0,1E0,4.77E2,2.8E1,2.7E1,1.3E1,3.04E2,4.5E1,5E0,1.4E1,1E0,1E1,1.3E1,1.91E2,3.2E1,7E0,3.3E1,2.83E2,1.6E1,1.6E1,3E0,6E0,1.9E1,3.4E1,1.1E1,6E0,3.77E2,1E2,2.4E1,3E0,4E0,9E0,2.7E2,3.4E1,3.2E1,1.3E1,4E0,1E0,2E0,1.2E1,5E0,8E0,1.6E2,3.1E1,2.9E1,3E0,3E0,4E0,1E0,3.2E1,2.2E1,2.61E2,7E0,9E0,5E0,1.1E1,5E0,1E0,9E0,1E1,1E0,3.3E1,9E0,2E0,2E0,4E0],"tree_param":{"num_deleted":"0","num_feature":"8","num_nodes":"95","size_leaf_vector":"1"}},{"base_weights":[4.650373E0,-8.089833E0,1.1475607E2,-1.0035208E1,1.7674123E2,2.5476698E2,2.2127594E1,4.6833253E0,-3.593749E1,7.577947E1,8.110922E1,1.7401822E2,2.7517184E2,-5.145334E1,4.4484196E1,1.1146166E2,2.6967454E-1,-1.1001604E2,-3.3033203E1,1.431202E2,-5.9134563E1,9.4344154E1,3.9343066E2,5.809239E1,-9.119593E1,1.4520589E2,7.249028E0,3.4469635E2,7.981317E1,-1.0639289E1,2.9543222E1,1.2156388E0,-1.1747875E2,5.88371E1,-3.4656513E1,-3.9645157E0,2.0672285E2,-1.4648255E0,-6.659408E0,5.2443783E1,6.488404E1,1.1438444E2,2.1711919E2,2.0312412E1,-4.0545128E1,-1.7453267E2,-5.491882E1,2.2609923E2,-1.4508219E1,-2.6312809E1,4.414788E1,7.2088137E0,4.1153637E1,-4.008695E0,1.0794234E1,1.0034518E0,-4.897255E0,1.160287E1,-7.402958E-1,-1.4151515E1,-4.5820093E0,1.8966467E1,1.8775572E0,-3.536543E0,9.19763E0,1.9225708E0,-3.6767595E0,-7.405192E-1,2.9385511E1,-1.2543257E-1,1.6241713E1,3.843613E1,6.2917633E0,-7.987522E0,1.2300009E0,-2.279457E0,-2.0676855E1,-8.818328E0,2.2593868E0,2.5060509E1,-4.6238403E0,-7.6465044E0,6.6564865E0,-1.7230093E0,-7.0096908E0,1.8939766E1,2.5690298E0],"categories":[],"categories_nodes":[],"categories_segments":[],"categories_sizes":[],"default_left":[0,0,0,0,0,0,0,0,0,0,0,0,0,0,0,0,0,0,0,0,0,0,0,0,0,0,0,0,0,0,0,0,0,0,0,0,0,0,0,0,0,0,0,0,0,0,0,0,0,0,0,0,0,0,0,0,0,0,0,0,0,0,0,0,0,0,0,0,0,0,0,0,0,0,0,0,0,0,0,0,0,0,0,0,0,0,0],"id":15,"left_children":[1,3,5,7,9,11,13,15,17,-1,19,21,-1,23,25,27,29,31,33,35,37,39,41,43,45,47,49,51,53,55,57,-1,59,61,63,65,67,-1,-1,-1,69,-1,71,-1,73,75,77,79,81,83,85,-1,-1,-1,-1,-1,-1,-1,-1,-1,-1,-1,-1,-1,-1,-1,-1,-1,-1,-1,-1,-1,-1,-1,-1,-1,-1,-1,-1,-1,-1,-1,-1,-1,-1,-1,-1],"loss_changes":[2.2453595E6,5.1775016E5,2.1472162E6,5.419154E5,7.7204544E5,1.282845E7,1.6843583E5,4.27423E5,1.07165625E5,0E0,1.3021649E5,1.0991782E6,0E0,1.0978494E5,2.9147775E5,2.3822369E5,2.7878234E5,1.8751156E4,7.615875E4,9.436933E4,6.8374414E2,5.8683206E5,2.0008605E6,1.0837467E5,4.483278E4,2.7459628E5,7.298847E4,4.321772E4,1.15625875E5,5.0451788E5,7.5814706E5,0E0,2.4519234E4,4.3609312E4,4.7151312E4,3.7497258E3,1.3277825E5,0E0,0E0,0E0,3.0338566E5,0E0,3.6265188E5,0E0,1.1374484E4,1.9743844E4,3.8090254E4,1.0502169E5,4.5274133E4,1.1120258E4,7.020119E4,0E0,0E0,0E0,0E0,0E0,0E0,0E0,0E0,0E0,0E0,0E0,0E0,0E0,0E0,0E0,0E0,0E0,0E0,0E0,0E0,0E0,0E0,0E0,0E0,0E0,0E0,0E0,0E0,0E0,0E0,0E0,0E0,0E0,0E0,0E0,0E0],"parents":[2147483647,0,0,1,1,2,2,3,3,4,4,5,5,6,6,7,7,8,8,10,10,11,11,13,13,14,14,15,15,16,16,17,17,18,18,19,19,20,20,21,21,22,22,23,23,24,24,25,25,26,26,27,27,28,28,29,29,30,30,32,32,33,33,34,34,35,35,36,36,40,40,42,42,44,44,45,45,46,46,47,47,48,48,49,49,50,50],"right_children":[2,4,6,8,10,12,14,16,18,-1,20,22,-1,24,26,28,30,32,34,36,38,40,42,44,46,48,50,52,54,56,58,-1,60,62,64,66,68,-1,-1,-1,70,-1,72,-1,74,76,78,80,82,84,86,-1,-1,-1,-1,-1,-1,-1,-1,-1,-1,-1,-1,-1,-1,-1,-1,-1,-1,-1,-1,-1,-1,-1,-1,-1,-1,-1,-1,-1,-1,-1,-1,-1,-1,-1,-1],"split_conditions":[1E0,2.0467E2,2.4353E2,3.3853E2,6E0,1.4744E2,2.9591E2,1.4E1,3.2013E2,7.577947E1,6.9943E2,2.8906E2,2.7517184E2,2.823E2,3.1913E2,1.198E3,2.9876E2,2E1,1.1E1,5.3E1,4.3E1,1.4E1,4.85E1,2.492E3,1.543E3,2.444E3,9.9E1,1.8333E2,1.445E3,2.492E3,3.0658E2,1.2156388E0,1E0,3.4923E2,1.92E2,1.558E3,4.2E1,-1.4648255E0,-6.659408E0,5.2443783E1,1.02E2,1.1438444E2,7E1,2.0312412E1,2.64E3,2.9E1,9.7E1,9.6E1,1.26E2,2.444E3,3.8E1,7.2088137E0,4.1153637E1,-4.008695E0,1.0794234E1,1.0034518E0,-4.897255E0,1.160287E1,-7.402958E-1,-1.4151515E1,-4.5820093E0,1.8966467E1,1.8775572E0,-3.536543E0,9.19763E0,1.9225708E0,-3.6767595E0,-7.405192E-1,2.9385511E1,-1.2543257E-1,1.6241713E1,3.843613E1,6.2917633E0,-7.987522E0,1.2300009E0,-2.279457E0,-2.0676855E1,-8.818328E0,2.2593868E0,2.5060509E1,-4.6238403E0,-7.6465044E0,6.6564865E0,-1.7230093E0,-7.0096908E0,1.8939766E1,2.5690298E0],"split_indices":[5,7,2,3,6,7,3,0,2,0,3,3,0,3,2,1,3,6,0,6,0,0,7,1,1,1,7,3,1,1,2,0,4,3,7,1,0,0,0,0,0,0,6,0,1,0,6,6,0,1,6,0,0,0,0,0,0,0,0,0,0,0,0,0,0,0,0,0,0,0,0,0,0,0,0,0,0,0,0,0,0,0,0,0,0,0,0],"split_type":[0,0,0,0,0,0,0,0,0,0,0,0,0,0,0,0,0,0,0,0,0,0,0,0,0,0,0,0,0,0,0,0,0,0,0,0,0,0,0,0,0,0,0,0,0,0,0,0,0,0,0,0,0,0,0,0,0,0,0,0,0,0,0,0,0,0,0,0,0,0,0,0,0,0,0,0,0,0,0,0,0,0,0,0,0,0,0],"sum_hessian":[1.599E3,1.434E3,1.65E2,1.42E3,1.4E1,6.5E1,1E2,9.06E2,5.14E2,1E0,1.3E1,6.4E1,1E0,2.3E1,7.7E1,3.5E1,8.71E2,1.8E1,4.96E2,9E0,4E0,4.8E1,1.6E1,6E0,1.7E1,2E1,5.7E1,3E0,3.2E1,6.35E2,2.36E2,1E0,1.7E1,8E0,4.88E2,3E0,6E0,1E0,3E0,2E0,4.6E1,2E0,1.4E1,2E0,4E0,4E0,1.3E1,1.3E1,7E0,3E1,2.7E1,1E0,2E0,6E0,2.6E1,4.13E2,2.22E2,7E1,1.66E2,1.2E1,5E0,1E0,7E0,4.86E2,2E0,2E0,1E0,2E0,4E0,2.8E1,1.8E1,6E0,8E0,2E0,2E0,1E0,3E0,9E0,4E0,1.2E1,1E0,4E0,3E0,2.6E1,4E0,2E0,2.5E1],"tree_param":{"num_deleted":"0","num_feature":"8","num_nodes":"87","size_leaf_vector":"1"}},{"base_weights":[4.61331E0,-5.1833754E0,1.2883269E2,1.6550673E1,-2.2469734E1,2.7916913E2,3.7702473E1,-7.8214806E-1,1.2737266E2,9.212508E1,-2.527843E1,1.6886629E2,1.7303525E3,2.870741E1,1.8793921E2,1.74394E2,-9.13774E0,4.3075964E2,7.4497284E1,1.8107077E2,-6.3927315E1,-6.1221653E1,-1.9940311E1,1.0853946E2,3.5105817E2,-1.8603554E0,2.6141324E2,1.202988E1,7.714515E1,2.5544294E1,-7.285965E-1,2.4741602E2,-5.9153748E1,4.4668762E1,-2.5592512E1,8.6103357E2,1.4385641E2,4.996856E1,3.1264618E2,8.877202E1,2.7395734E2,-7.555369E0,-1.5536211E1,1.7670555E1,-8.7745605E1,1.2248017E2,-2.5139389E1,1.3864748E2,-2.3097094E1,2.2127539E2,4.3658588E2,1.6655195E1,5.971879E0,1.358612E2,-3.4531673E1,1.2991124E1,4.0743427E1,2.233483E1,-1.4346214E1,-5.457663E0,1.0691688E1,-1.1037573E1,-1.7556511E0,1.789685E1,1.2560874E2,2.6266434E1,-3.7227815E-1,2.9289315E0,2.3485174E1,6.1523567E1,-6.8104854E0,-7.9472136E0,1.58098755E1,1.4868995E1,3.496614E1,1.4235115E0,-3.4090893E0,-7.3192325E0,1.5648859E1,-5.123556E0,-9.863467E0,-8.685178E0,1.4445912E1,-3.2052307E0,1.5629321E-1,5.559932E0,2.9856607E1,-1.0551633E1,3.0973866E0,2.4630142E1,4.80726E0,5.052847E1,8.08953E0,2.9682727E0,-3.15724E0,7.329149E0,2.9913986E1,2.980428E-1,-5.0132604E0],"categories":[],"categories_nodes":[],"categories_segments":[],"categories_sizes":[],"default_left":[0,0,0,0,0,0,0,0,0,0,0,0,0,0,0,0,0,0,0,0,0,0,0,0,0,0,0,0,0,0,0,0,0,0,0,0,0,0,0,0,0,0,0,0,0,0,0,0,0,0,0,0,0,0,0,0,0,0,0,0,0,0,0,0,0,0,0,0,0,0,0,0,0,0,0,0,0,0,0,0,0,0,0,0,0,0,0,0,0,0,0,0,0,0,0,0,0,0,0],"id":16,"left_children":[1,3,5,7,9,11,13,15,17,19,21,23,25,27,29,31,33,35,37,39,41,43,45,47,49,-1,-1,51,53,-1,-1,55,57,59,61,63,65,67,69,71,73,75,-1,77,79,81,83,85,87,89,91,-1,93,95,97,-1,-1,-1,-1,-1,-1,-1,-1,-1,-1,-1,-1,-1,-1,-1,-1,-1,-1,-1,-1,-1,-1,-1,-1,-1,-1,-1,-1,-1,-1,-1,-1,-1,-1,-1,-1,-1,-1,-1,-1,-1,-1,-1,-1],"loss_changes":[1.9477688E6,5.5791444E5,1.592397E6,1.2640239E6,2.685087E5,6.7508665E6,9.4607516E4,8.359028E5,1.3956209E6,2.8917916E5,1.538095E5,4.2352075E5,4.685709E6,5.6427312E4,5.4574844E4,4.580428E5,4.8367188E5,1.4809455E6,4.3417216E5,8.7133375E4,4.0061035E4,2.191739E5,5.2509994E5,1.3399175E5,1.43945E4,0E0,0E0,4.9554484E4,1.2272153E5,0E0,0E0,3.2312788E5,1.9876308E5,7.9659856E5,2.8285312E5,1.1224615E6,1.5878002E5,2.6457175E5,8.483793E5,1.05875E5,4.9083438E3,3.954619E3,0E0,3.520157E5,2.5956062E4,1.2756891E5,1.257565E5,3.4198538E5,3.4463656E4,1.4167125E4,8.13025E4,0E0,4.811811E4,1.006712E5,4.2459814E3,0E0,0E0,0E0,0E0,0E0,0E0,0E0,0E0,0E0,0E0,0E0,0E0,0E0,0E0,0E0,0E0,0E0,0E0,0E0,0E0,0E0,0E0,0E0,0E0,0E0,0E0,0E0,0E0,0E0,0E0,0E0,0E0,0E0,0E0,0E0,0E0,0E0,0E0,0E0,0E0,0E0,0E0,0E0,0E0],"parents":[2147483647,0,0,1,1,2,2,3,3,4,4,5,5,6,6,7,7,8,8,9,9,10,10,11,11,12,12,13,13,14,14,15,15,16,16,17,17,18,18,19,19,20,20,21,21,22,22,23,23,24,24,27,27,28,28,31,31,32,32,33,33,34,34,35,35,36,36,37,37,38,38,39,39,40,40,41,41,43,43,44,44,45,45,46,46,47,47,48,48,49,49,50,50,52,52,53,53,54,54],"right_children":[2,4,6,8,10,12,14,16,18,20,22,24,26,28,30,32,34,36,38,40,42,44,46,48,50,-1,-1,52,54,-1,-1,56,58,60,62,64,66,68,70,72,74,76,-1,78,80,82,84,86,88,90,92,-1,94,96,98,-1,-1,-1,-1,-1,-1,-1,-1,-1,-1,-1,-1,-1,-1,-1,-1,-1,-1,-1,-1,-1,-1,-1,-1,-1,-1,-1,-1,-1,-1,-1,-1,-1,-1,-1,-1,-1,-1,-1,-1,-1,-1,-1,-1],"split_conditions":[1E0,2.8815E2,3.1137E2,2.8424E2,1.198E3,1.4159E2,1.62E2,1.4E1,2.9003E2,7.7E1,2.9876E2,2.9591E2,6.4E1,6.7803E2,1.971E3,2.492E3,1.5326E2,6.6E1,1.4647E2,1.08E2,3.0846E2,1.77E3,3.0658E2,1.39E2,3.9E1,-1.8603554E0,2.6141324E2,1.198E3,6.9943E2,2.5544294E1,-7.285965E-1,1.878E3,8E0,1.2028E2,1.572E2,1.247E3,2.8718E2,2.707E3,1.01E2,-1E0,2.9876E2,3.0173E2,-1.5536211E1,1.543E3,1.993E3,1.247E3,2.494E3,9.3E1,3E1,1.43E2,2.304E3,1.6655195E1,1.01E2,1E2,1.571E3,1.2991124E1,4.0743427E1,2.233483E1,-1.4346214E1,-5.457663E0,1.0691688E1,-1.1037573E1,-1.7556511E0,1.789685E1,1.2560874E2,2.6266434E1,-3.7227815E-1,2.9289315E0,2.3485174E1,6.1523567E1,-6.8104854E0,-7.9472136E0,1.58098755E1,1.4868995E1,3.496614E1,1.4235115E0,-3.4090893E0,-7.3192325E0,1.5648859E1,-5.123556E0,-9.863467E0,-8.685178E0,1.4445912E1,-3.2052307E0,1.5629321E-1,5.559932E0,2.9856607E1,-1.0551633E1,3.0973866E0,2.4630142E1,4.80726E0,5.052847E1,8.08953E0,2.9682727E0,-3.15724E0,7.329149E0,2.9913986E1,2.980428E-1,-5.0132604E0],"split_indices":[4,2,3,3,1,7,0,0,3,6,2,3,0,3,1,1,3,0,7,0,2,1,2,0,6,0,0,1,3,0,0,1,6,2,3,1,3,1,0,7,2,2,0,1,1,1,1,0,6,0,1,0,0,6,1,0,0,0,0,0,0,0,0,0,0,0,0,0,0,0,0,0,0,0,0,0,0,0,0,0,0,0,0,0,0,0,0,0,0,0,0,0,0,0,0,0,0,0,0],"split_type":[0,0,0,0,0,0,0,0,0,0,0,0,0,0,0,0,0,0,0,0,0,0,0,0,0,0,0,0,0,0,0,0,0,0,0,0,0,0,0,0,0,0,0,0,0,0,0,0,0,0,0,0,0,0,0,0,0,0,0,0,0,0,0,0,0,0,0,0,0,0,0,0,0,0,0,0,0,0,0,0,0,0,0,0,0,0,0,0,0,0,0,0,0,0,0,0,0,0,0],"sum_hessian":[1.599E3,1.483E3,1.16E2,6.57E2,8.26E2,4.3E1,7.3E1,5.69E2,8.8E1,1.9E1,8.07E2,4.1E1,2E0,7E1,3E0,2.5E1,5.44E2,1.2E1,7.6E1,1.2E1,7E0,1.03E2,7.04E2,3.2E1,9E0,1E0,1E0,5.3E1,1.7E1,2E0,1E0,1.9E1,6E0,1.27E2,4.17E2,4E0,8E0,7E1,6E0,7E0,5E0,5E0,2E0,2.6E1,7.7E1,2.4E1,6.8E2,2.6E1,6E0,5E0,4E0,1E0,5.2E1,1.1E1,6E0,1.2E1,7E0,1E0,5E0,4.9E1,7.8E1,3.5E1,3.82E2,2E0,2E0,4E0,4E0,6.4E1,6E0,3E0,3E0,2E0,5E0,3E0,2E0,3E0,2E0,1.6E1,1E1,1.9E1,5.8E1,2E0,2.2E1,5.4E2,1.4E2,1.8E1,8E0,2E0,4E0,4E0,1E0,3E0,1E0,3.2E1,2E1,9E0,2E0,2E0,4E0],"tree_param":{"num_deleted":"0","num_feature":"8","num_nodes":"99","size_leaf_vector":"1"}},{"base_weights":[4.645916E0,-6.454341E0,1.0057497E2,-8.1563E0,1.5520815E2,2.2290445E2,1.96411E1,4.4243107E0,-2.9506374E1,6.891432E1,6.784542E1,1.4992065E2,2.4834258E2,-4.5765717E1,3.9514465E1,1.5145909E2,2.0854092E0,5.6312027E1,-3.0937702E1,1.2040234E2,-5.0837505E1,8.147297E1,3.3839215E2,5.4679314E1,-8.228513E1,2.778013E1,2.6278976E1,2.3627159E2,-4.845774E1,5.6468628E1,-3.3351922E0,1.8010328E1,1.8325212E1,-7.3544975E1,-2.8813686E1,-2.256752E0,1.7329292E2,-1.140921E0,-5.784228E0,4.6231308E1,5.543056E1,1.0157664E2,1.8035783E2,1.8831442E1,-3.64376E1,-1.6131769E2,-4.818171E1,1.2586464E2,1.2509573E1,5.673182E0,3.4650948E1,-5.4216228E0,-1.2711899E0,3.5469906E0,2.4102337E1,-6.803393E0,1.1630878E0,-4.878787E0,6.8350635E0,-9.791219E0,2.434504E1,1.06160345E1,-2.957504E0,1.9224732E0,-3.3350601E0,-8.286163E-1,2.4758179E1,-1.0469943E1,9.096233E0,3.1279041E1,2.538052E0,-7.337978E0,1.2650441E0,-2.311931E0,-1.9008747E1,-7.965053E0,2.4392273E0,5.5107255E0,2.4901033E1,-3.4229786E0,2.908555E0],"categories":[],"categories_nodes":[],"categories_segments":[],"categories_sizes":[],"default_left":[0,0,0,0,0,0,0,0,0,0,0,0,0,0,0,0,0,0,0,0,0,0,0,0,0,0,0,0,0,0,0,0,0,0,0,0,0,0,0,0,0,0,0,0,0,0,0,0,0,0,0,0,0,0,0,0,0,0,0,0,0,0,0,0,0,0,0,0,0,0,0,0,0,0,0,0,0,0,0,0,0],"id":17,"left_children":[1,3,5,7,9,11,13,15,17,-1,19,21,-1,23,25,27,29,31,33,35,37,39,41,43,45,-1,47,49,51,53,55,-1,57,59,61,63,65,-1,-1,-1,67,-1,69,-1,71,73,75,77,79,-1,-1,-1,-1,-1,-1,-1,-1,-1,-1,-1,-1,-1,-1,-1,-1,-1,-1,-1,-1,-1,-1,-1,-1,-1,-1,-1,-1,-1,-1,-1,-1],"loss_changes":[1.7043886E6,3.9609594E5,1.6391211E6,3.818068E5,6.529351E5,1.0516458E7,1.3309361E5,3.0747453E5,6.647584E4,0E0,9.3447484E4,8.109585E5,0E0,9.253595E4,2.3869944E5,2.488254E5,2.6019288E5,3.9021484E4,4.4849594E4,6.526617E4,7.209951E2,4.6035547E5,1.6366211E6,9.209664E4,4.0742492E4,0E0,1.0126814E5,1.7826269E5,3.4001758E2,3.01484E5,7.783248E5,0E0,3.0193562E4,2.0921978E5,5.4110125E4,3.312924E3,9.6476625E4,0E0,0E0,0E0,2.7693972E5,0E0,2.9992188E5,0E0,9.995381E3,1.5484984E4,3.3916305E4,6.469892E4,5.2903875E4,0E0,0E0,0E0,0E0,0E0,0E0,0E0,0E0,0E0,0E0,0E0,0E0,0E0,0E0,0E0,0E0,0E0,0E0,0E0,0E0,0E0,0E0,0E0,0E0,0E0,0E0,0E0,0E0,0E0,0E0,0E0,0E0],"parents":[2147483647,0,0,1,1,2,2,3,3,4,4,5,5,6,6,7,7,8,8,10,10,11,11,13,13,14,14,15,15,16,16,17,17,18,18,19,19,20,20,21,21,22,22,23,23,24,24,26,26,27,27,28,28,29,29,30,30,32,32,33,33,34,34,35,35,36,36,40,40,42,42,44,44,45,45,46,46,47,47,48,48],"right_children":[2,4,6,8,10,12,14,16,18,-1,20,22,-1,24,26,28,30,32,34,36,38,40,42,44,46,-1,48,50,52,54,56,-1,58,60,62,64,66,-1,-1,-1,68,-1,70,-1,72,74,76,78,80,-1,-1,-1,-1,-1,-1,-1,-1,-1,-1,-1,-1,-1,-1,-1,-1,-1,-1,-1,-1,-1,-1,-1,-1,-1,-1,-1,-1,-1,-1,-1,-1],"split_conditions":[1E0,2.0467E2,2.4353E2,3.3465E2,6E0,1.4744E2,2.9591E2,1.1E1,1.1E1,6.891432E1,6.9943E2,2.8906E2,2.4834258E2,2.823E2,3.0949E2,2.7263E2,1.198E3,3.4923E2,3.2113E2,5.3E1,4.3E1,1.4E1,4.85E1,2.492E3,1.543E3,2.778013E1,2.8815E2,1.445E3,2.581E3,1.35E2,1.543E3,1.8010328E1,4.3559E2,2.577E3,3.2307E2,1.558E3,4.2E1,-1.140921E0,-5.784228E0,4.6231308E1,1.878E3,1.0157664E2,7.6E1,1.8831442E1,2.64E3,2.9E1,9.7E1,4.0355E2,2.81E1,5.673182E0,3.4650948E1,-5.4216228E0,-1.2711899E0,3.5469906E0,2.4102337E1,-6.803393E0,1.1630878E0,-4.878787E0,6.8350635E0,-9.791219E0,2.434504E1,1.06160345E1,-2.957504E0,1.9224732E0,-3.3350601E0,-8.286163E-1,2.4758179E1,-1.0469943E1,9.096233E0,3.1279041E1,2.538052E0,-7.337978E0,1.2650441E0,-2.311931E0,-1.9008747E1,-7.965053E0,2.4392273E0,5.5107255E0,2.4901033E1,-3.4229786E0,2.908555E0],"split_indices":[5,7,2,3,6,7,3,0,0,0,3,3,0,3,3,2,1,3,2,6,0,0,7,1,1,0,2,1,1,6,1,0,2,1,2,1,0,0,0,0,1,0,0,0,1,0,6,3,7,0,0,0,0,0,0,0,0,0,0,0,0,0,0,0,0,0,0,0,0,0,0,0,0,0,0,0,0,0,0,0,0],"split_type":[0,0,0,0,0,0,0,0,0,0,0,0,0,0,0,0,0,0,0,0,0,0,0,0,0,0,0,0,0,0,0,0,0,0,0,0,0,0,0,0,0,0,0,0,0,0,0,0,0,0,0,0,0,0,0,0,0,0,0,0,0,0,0,0,0,0,0,0,0,0,0,0,0,0,0,0,0,0,0,0,0],"sum_hessian":[1.599E3,1.434E3,1.65E2,1.42E3,1.4E1,6.5E1,1E2,8.94E2,5.26E2,1E0,1.3E1,6.4E1,1E0,2.3E1,7.7E1,1.3E1,8.81E2,8E0,5.18E2,9E0,4E0,4.8E1,1.6E1,6E0,1.7E1,3E0,7.4E1,9E0,4E0,7.9E1,8.02E2,1E0,7E0,2.3E1,4.95E2,3E0,6E0,1E0,3E0,2E0,4.6E1,2E0,1.4E1,2E0,4E0,4E0,1.3E1,8E0,6.6E1,4E0,5E0,3E0,1E0,7.2E1,7E0,1.5E2,6.52E2,3E0,4E0,2.2E1,1E0,2E0,4.93E2,2E0,1E0,2E0,4E0,8E0,3.8E1,7E0,7E0,2E0,2E0,1E0,3E0,9E0,4E0,6E0,2E0,1.7E1,4.9E1],"tree_param":{"num_deleted":"0","num_feature":"8","num_nodes":"81","size_leaf_vector":"1"}},{"base_weights":[4.590392E0,-4.0080338E0,1.13611534E2,1.6526037E1,-1.6941675E1,2.4700104E2,3.2763557E1,1.3145356E1,4.9498663E2,7.924565E1,-1.9522255E1,1.4709715E2,1.5633218E3,2.4830627E1,1.653822E2,4.010437E1,-2.7885508E1,6.994363E1,-5.9181123E0,1.5100298E2,-8.314436E1,-3.734555E1,-1.1674948E1,9.1835396E1,3.1475122E2,-1.4271683E0,2.3592545E2,9.808242E0,6.85183E1,2.2186031E1,-2.0260544E-1,-1.1364162E1,1.5948207E2,-3.5240936E1,2.083196E2,1.9736736E2,5.657281E1,-1.7779474E1,1.338712E2,-7.653162E1,-3.3575974E1,9.486206E1,-2.5019274E1,1.2427766E2,-8.485933E0,1.9340019E2,3.9742224E2,1.5677005E1,4.0774517E0,1.2169195E2,-3.242484E1,-1.8134902E0,3.960285E1,4.9726042E-1,2.77244E1,-9.249431E0,-2.4336612E0,1.7580506E0,2.3717937E1,1.2244587E1,2.9786848E1,2.385423E1,-1.3512486E0,1.846534E1,1.6153396E0,8.194911E0,-9.552736E0,1.0889738E0,-3.6472878E0,1.5046905E1,4.5538764E0,-5.7669163E0,-8.979681E-1,6.66479E-1,1.7923285E1,-5.622423E0,1.0573208E1,2.1404526E1,4.5087433E0,4.586433E1,7.6268983E0,2.4987805E0,-2.8975837E0,6.5037856E0,2.6997496E1,2.1955109E-1,-4.671208E0],"categories":[],"categories_nodes":[],"categories_segments":[],"categories_sizes":[],"default_left":[0,0,0,0,0,0,0,0,0,0,0,0,0,0,0,0,0,0,0,0,0,0,0,0,0,0,0,0,0,0,0,0,0,0,0,0,0,0,0,0,0,0,0,0,0,0,0,0,0,0,0,0,0,0,0,0,0,0,0,0,0,0,0,0,0,0,0,0,0,0,0,0,0,0,0,0,0,0,0,0,0,0,0,0,0,0,0],"id":18,"left_children":[1,3,5,7,9,11,13,15,17,19,21,23,25,27,29,31,33,-1,-1,35,37,39,41,43,45,-1,-1,47,49,-1,-1,51,53,55,57,59,61,-1,63,65,67,69,71,73,75,77,79,-1,81,83,85,-1,-1,-1,-1,-1,-1,-1,-1,-1,-1,-1,-1,-1,-1,-1,-1,-1,-1,-1,-1,-1,-1,-1,-1,-1,-1,-1,-1,-1,-1,-1,-1,-1,-1,-1,-1],"loss_changes":[1.5003115E6,3.9440116E5,1.253667E6,9.2195106E5,2.2767456E5,5.556285E6,7.37455E4,6.3273094E5,4.94591E5,2.9221916E5,1.23764E5,3.6021875E5,3.8006445E6,4.592478E4,3.8269094E4,2.12156E6,4.0172894E5,0E0,0E0,6.326372E4,1.8812644E5,3.7461125E4,8.809621E5,1.0845806E5,2.3460625E4,0E0,0E0,4.4839965E4,1.0056111E5,0E0,0E0,6.7470244E5,1.890936E6,1.3572138E5,3.436303E4,4.6353875E4,9.2497E4,0E0,1.4951129E4,7.706892E4,3.2471594E4,1.8239544E5,2.875121E5,1.6039134E5,5.501787E4,8.720797E3,6.33265E4,0E0,3.735531E4,8.325145E4,3.5649624E3,0E0,0E0,0E0,0E0,0E0,0E0,0E0,0E0,0E0,0E0,0E0,0E0,0E0,0E0,0E0,0E0,0E0,0E0,0E0,0E0,0E0,0E0,0E0,0E0,0E0,0E0,0E0,0E0,0E0,0E0,0E0,0E0,0E0,0E0,0E0,0E0],"parents":[2147483647,0,0,1,1,2,2,3,3,4,4,5,5,6,6,7,7,8,8,9,9,10,10,11,11,12,12,13,13,14,14,15,15,16,16,19,19,20,20,21,21,22,22,23,23,24,24,27,27,28,28,31,31,32,32,33,33,34,34,35,35,36,36,38,38,39,39,40,40,41,41,42,42,43,43,44,44,45,45,46,46,48,48,49,49,50,50],"right_children":[2,4,6,8,10,12,14,16,18,20,22,24,26,28,30,32,34,-1,-1,36,38,40,42,44,46,-1,-1,48,50,-1,-1,52,54,56,58,60,62,-1,64,66,68,70,72,74,76,78,80,-1,82,84,86,-1,-1,-1,-1,-1,-1,-1,-1,-1,-1,-1,-1,-1,-1,-1,-1,-1,-1,-1,-1,-1,-1,-1,-1,-1,-1,-1,-1,-1,-1,-1,-1,-1,-1,-1,-1],"split_conditions":[1E0,2.8033E2,3.1137E2,2.7936E2,1.198E3,1.4159E2,1.62E2,2.304E3,5E1,3.0849E2,1.727E3,2.9591E2,6.4E1,6.7803E2,1.971E3,1.885E3,2.826E3,6.994363E1,-5.9181123E0,7.7E1,3.1434E2,3.0364E2,1.77E3,2.492E3,3.9E1,-1.4271683E0,2.3592545E2,1.198E3,6.9943E2,2.2186031E1,-2.0260544E-1,1.4744E2,1.3583E2,1.3483E2,2.4353E2,2.9876E2,5E1,-1.7779474E1,5.3E1,1.4E1,3.1816E2,8.8E1,2.29E3,1.885E3,2.707E3,1.43E2,2.304E3,1.5677005E1,1.01E2,1E2,4.7339E2,-1.8134902E0,3.960285E1,4.9726042E-1,2.77244E1,-9.249431E0,-2.4336612E0,1.7580506E0,2.3717937E1,1.2244587E1,2.9786848E1,2.385423E1,-1.3512486E0,1.846534E1,1.6153396E0,8.194911E0,-9.552736E0,1.0889738E0,-3.6472878E0,1.5046905E1,4.5538764E0,-5.7669163E0,-8.979681E-1,6.66479E-1,1.7923285E1,-5.622423E0,1.0573208E1,2.1404526E1,4.5087433E0,4.586433E1,7.6268983E0,2.4987805E0,-2.8975837E0,6.5037856E0,2.6997496E1,2.1955109E-1,-4.671208E0],"split_indices":[4,2,3,2,1,7,0,1,0,3,1,3,0,3,1,1,1,0,0,6,2,2,1,1,6,0,0,1,3,0,0,7,3,2,2,2,0,0,0,0,3,0,1,1,1,0,1,0,0,6,2,0,0,0,0,0,0,0,0,0,0,0,0,0,0,0,0,0,0,0,0,0,0,0,0,0,0,0,0,0,0,0,0,0,0,0,0],"split_type":[0,0,0,0,0,0,0,0,0,0,0,0,0,0,0,0,0,0,0,0,0,0,0,0,0,0,0,0,0,0,0,0,0,0,0,0,0,0,0,0,0,0,0,0,0,0,0,0,0,0,0,0,0,0,0,0,0,0,0,0,0,0,0,0,0,0,0,0,0,0,0,0,0,0,0,0,0,0,0,0,0,0,0,0,0,0,0],"sum_hessian":[1.599E3,1.483E3,1.16E2,5.73E2,9.1E2,4.3E1,7.3E1,5.7E2,3E0,2.3E1,8.87E2,4.1E1,2E0,7E1,3E0,3.44E2,2.26E2,2E0,1E0,1.6E1,7E0,2.7E2,6.17E2,3.2E1,9E0,1E0,1E0,5.3E1,1.7E1,2E0,1E0,2.41E2,1.03E2,2.2E2,6E0,1E1,6E0,5E0,2E0,2.2E1,2.48E2,6.8E1,5.49E2,2.4E1,8E0,5E0,4E0,1E0,5.2E1,1.1E1,6E0,2.38E2,3E0,4.5E1,5.8E1,3.4E1,1.86E2,1E0,5E0,7E0,3E0,1E0,5E0,1E0,1E0,2E0,2E1,1.5E1,2.33E2,3.1E1,3.7E1,1.8E2,3.69E2,8E0,1.6E1,6E0,2E0,4E0,1E0,3E0,1E0,3.2E1,2E1,9E0,2E0,2E0,4E0],"tree_param":{"num_deleted":"0","num_feature":"8","num_nodes":"87","size_leaf_vector":"1"}},{"base_weights":[4.5210013E0,-3.4591959E0,1.0570127E2,2.6095E1,-1.1541811E1,3.4116516E2,6.502219E1,8.794936E1,-1.860704E1,1.0096561E2,-1.5835651E1,8.962269E1,1.4851558E3,1.4855014E2,2.5909098E1,-5.0847992E1,1.3380243E2,1.1887339E1,-7.169857E1,1.6574678E2,-1.8711817E1,-7.252583E1,-8.797272E0,-2.0653637E1,1.8869617E2,-1.3558098E0,2.2412918E2,-2.0398392E1,1.8059239E2,1.7854887E1,1.5433984E2,1.8609632E1,-1.5140244E2,-2.0406673E1,1.8213263E2,6.915681E1,-2.5147625E1,-1.0088027E2,-6.0968165E0,2.3264984E2,8.222588E1,1.2032176E2,-7.508315E1,-9.5953094E1,-2.9265688E1,2.5379454E2,-1.1971317E1,3.7956703E1,-8.875315E1,-2.526065E0,2.228701E1,4.7162127E0,-6.5969185E1,2.56445E2,7.917842E1,1.1446255E0,6.3280342E1,2.0706963E1,-1.9247513E-1,5.1834993E0,-7.309293E0,-1.614385E1,-6.079069E0,3.05999E0,-1.1448502E1,2.2551779E1,7.0466704E0,-2.0037916E0,3.309779E1,-3.8739765E0,1.6745342E1,-1.2173452E1,6.970317E-2,4.375377E0,-5.992502E0,2.4551551E0,3.3424385E1,4.9024382E-1,2.204276E1,-2.263024E0,2.231665E1,-9.802259E0,8.862533E0,-1.1193302E1,2.7099721E0,4.2252574E0,-8.315413E0,4.815189E0,4.5141186E1,-3.9302804E0,-9.211112E-2,1.0802421E1,-4.4763045E0,-2.1634576E0,-1.0391448E1,5.7127535E-1,-9.176742E0,1.3848181E0,3.4340313E1,2.2921036E-1,2.5159962E1,1.4393642E0,-4.201006E0,1.1231453E1,-2.9818308E0],"categories":[],"categories_nodes":[],"categories_segments":[],"categories_sizes":[],"default_left":[0,0,0,0,0,0,0,0,0,0,0,0,0,0,0,0,0,0,0,0,0,0,0,0,0,0,0,0,0,0,0,0,0,0,0,0,0,0,0,0,0,0,0,0,0,0,0,0,0,0,0,0,0,0,0,0,0,0,0,0,0,0,0,0,0,0,0,0,0,0,0,0,0,0,0,0,0,0,0,0,0,0,0,0,0,0,0,0,0,0,0,0,0,0,0,0,0,0,0,0,0,0,0,0,0],"id":19,"left_children":[1,3,5,7,9,11,13,15,17,19,21,23,25,27,29,31,33,35,37,39,41,43,45,47,49,-1,-1,51,53,55,57,59,61,63,65,67,69,71,73,75,77,79,81,83,85,87,89,91,93,-1,-1,-1,95,97,99,101,103,-1,-1,-1,-1,-1,-1,-1,-1,-1,-1,-1,-1,-1,-1,-1,-1,-1,-1,-1,-1,-1,-1,-1,-1,-1,-1,-1,-1,-1,-1,-1,-1,-1,-1,-1,-1,-1,-1,-1,-1,-1,-1,-1,-1,-1,-1,-1,-1],"loss_changes":[1.2922672E6,3.5479194E5,1.098496E6,8.836766E5,5.6488056E5,4.758854E6,3.2612184E5,8.596178E5,3.0198506E5,3.3647378E5,4.4784584E5,1.6777919E5,3.4300825E6,1.7691556E5,6.965286E4,2.4028281E5,7.5646525E5,2.541349E5,1.2956216E5,1.3732862E5,1.3443428E5,1.2286169E5,8.3734994E5,3.529946E4,6.412378E4,0E0,0E0,2.1583967E4,1.8739306E5,5.0785336E4,3.3357734E4,6.7772625E4,2.9174375E3,1.2346858E5,3.5714625E5,1.104226E6,1.9759089E5,9.964584E4,6.165604E4,3.0891675E5,1.4852662E5,7.855962E4,5.375185E4,1.6034344E5,1.7694381E5,4.6592638E5,2.9896216E5,3.381533E4,1.8222871E3,0E0,0E0,0E0,7.9213125E3,3.1168094E5,1.717621E5,2.9192533E4,8.5519336E4,0E0,0E0,0E0,0E0,0E0,0E0,0E0,0E0,0E0,0E0,0E0,0E0,0E0,0E0,0E0,0E0,0E0,0E0,0E0,0E0,0E0,0E0,0E0,0E0,0E0,0E0,0E0,0E0,0E0,0E0,0E0,0E0,0E0,0E0,0E0,0E0,0E0,0E0,0E0,0E0,0E0,0E0,0E0,0E0,0E0,0E0,0E0,0E0],"parents":[2147483647,0,0,1,1,2,2,3,3,4,4,5,5,6,6,7,7,8,8,9,9,10,10,11,11,12,12,13,13,14,14,15,15,16,16,17,17,18,18,19,19,20,20,21,21,22,22,23,23,24,24,27,27,28,28,29,29,30,30,31,31,32,32,33,33,34,34,35,35,36,36,37,37,38,38,39,39,40,40,41,41,42,42,43,43,44,44,45,45,46,46,47,47,48,48,52,52,53,53,54,54,55,55,56,56],"right_children":[2,4,6,8,10,12,14,16,18,20,22,24,26,28,